{"learner":{"attributes":{"best_iteration":"128","best_ntree_limit":"129","scikit_learn":"{\"n_estimators\": 129, \"objective\": \"binary:logistic\", \"max_depth\": 7, \"max_leaves\": null, \"max_bin\": null, \"grow_policy\": null, \"learning_rate\": null, \"verbosity\": null, \"booster\": null, \"tree_method\": \"gpu_hist\", \"gamma\": 0.25425105474416565, \"min_child_weight\": null, \"max_delta_step\": null, \"subsample\": 0.9070776794383953, \"sampling_method\": null, \"colsample_bytree\": 0.5234577524802939, \"colsample_bylevel\": null, \"colsample_bynode\": null, \"reg_alpha\": null, \"reg_lambda\": null, \"scale_pos_weight\": 19.251404494382022, \"base_score\": null, \"missing\": NaN, \"num_parallel_tree\": null, \"random_state\": null, \"n_jobs\": null, \"monotone_constraints\": null, \"interaction_constraints\": null, \"importance_type\": null, \"gpu_id\": null, \"validate_parameters\": null, \"predictor\": null, \"enable_categorical\": false, \"feature_types\": null, \"max_cat_to_onehot\": null, \"max_cat_threshold\": null, \"eval_metric\": null, \"early_stopping_rounds\": null, \"callbacks\": null, \"kwargs\": {\"alpha\": 7.741016295635692, \"eta\": 0.12670579787708414, \"lambda\": 7.316539012978252}, \"_estimator_type\": \"regressor\"}"},"feature_names":["overall_score","style_score","story_score","grammar_score","character_score","pages","chapter_count","chapter_release_diff_avg","chapter_release_diff_std","label: completed","label: dropped","label: hiatus","label: ongoing","label: stub","tag: action","tag: adventure","tag: anti-hero lead","tag: artificial intelligence","tag: attractive lead","tag: comedy","tag: contemporary","tag: cyberpunk","tag: drama","tag: dungeon","tag: dystopia","tag: fantasy","tag: female lead","tag: first contact","tag: gamelit","tag: gender bender","tag: genetically engineered","tag: grimdark","tag: hard sci-fi","tag: harem","tag: high fantasy","tag: historical","tag: horror","tag: litrpg","tag: low fantasy","tag: magic","tag: male lead","tag: martial arts","tag: multiple lead characters","tag: mystery","tag: mythos","tag: non-human lead","tag: portal fantasy / isekai","tag: post apocalyptic","tag: progression","tag: psychological","tag: reader interactive","tag: reincarnation","tag: romance","tag: ruling class","tag: satire","tag: school life","tag: sci-fi","tag: secret identity","tag: short story","tag: slice of life","tag: soft sci-fi","tag: space opera","tag: sports","tag: steampunk","tag: strategy","tag: strong lead","tag: super heroes","tag: supernatural","tag: technologically engineered","tag: time loop","tag: time travel","tag: tragedy","tag: urban fantasy","tag: villainous lead","tag: virtual reality","tag: war and military","tag: wuxia","tag: xianxia"],"feature_types":["float","float","float","float","float","int","float","float","float","int","int","int","int","int","float","float","float","float","float","float","float","float","float","float","float","float","float","float","float","float","float","float","float","float","float","float","float","float","float","float","float","float","float","float","float","float","float","float","float","float","float","float","float","float","float","float","float","float","float","float","float","float","float","float","float","float","float","float","float","float","float","float","float","float","float","float","float","float"],"gradient_booster":{"model":{"gbtree_model_param":{"num_parallel_tree":"1","num_trees":"129","size_leaf_vector":"0"},"tree_info":[0,0,0,0,0,0,0,0,0,0,0,0,0,0,0,0,0,0,0,0,0,0,0,0,0,0,0,0,0,0,0,0,0,0,0,0,0,0,0,0,0,0,0,0,0,0,0,0,0,0,0,0,0,0,0,0,0,0,0,0,0,0,0,0,0,0,0,0,0,0,0,0,0,0,0,0,0,0,0,0,0,0,0,0,0,0,0,0,0,0,0,0,0,0,0,0,0,0,0,0,0,0,0,0,0,0,0,0,0,0,0,0,0,0,0,0,0,0,0,0,0,0,0,0,0,0,0,0,0],"trees":[{"base_weights":[-7.7350144E-3,-1.8365363E0,1.3616889E0,-1.9635347E0,-5.372008E-1,-1.3180487E0,1.6201067E0,-2.5226277E-1,-1.3801582E0,-8.9340293E-1,2.9454398E-1,-1.693167E0,-6.586811E-1,9.241049E-1,1.7702688E0,-1.7448314E0,-5.8862346E-1,-1.3424573E0,-1.625844E-1,-2.3283613E-1,7.7216065E-1,-1.736964E0,-0E0,-1.0138392E0,5.6353366E-1,1.1101003E0,-3.309861E-1,1.7788049E0,-1.0664993E-1,-2.3483E-1,-0E0,7.7987605E-1,-1.0198983E0,-1.4145455E0,-0E0,-9.3620884E-1,4.089711E-2,-1.3801368E-1,6.7911774E-2,9.0768427E-1,-2.8997138E-3,-1.7810732E0,-0E0,-1.904149E-1,-1.1265272E-1,8.904717E-1,-4.4446915E-2,-1.5810454E-1,1.3036385E0,-1.0567398E0,-0E0,1.5979759E0,1.9055431E0,-0E0,1.18823044E-1,-1.7019539E-1,-0E0,-6.4773977E-1,-2.0222478E-1,-0E0,1.9687764E-2,-1.5752862E-1,-0E0,5.0211406E-1,-6.224527E-1,-7.129485E-2,4.777111E-1,-0E0,1.1679394E0,-3.7586856E-1,-2.3122686E-1,-4.8227977E-2,8.875708E-3,5.663898E-1,-1.0292423E0,-1.34997675E-2,1.1827239E0,3.0753854E-1,-1.1696389E0,1.3686063E0,-6.298113E-1,-1.7480889E-1,-0E0,3.741365E-1,-6.891911E-1,-2.3239184E-2,1.6059731E0,-0E0,2.4168661E-1,5.42986E-2,-5.539394E-2,-1.7139797E-1,2.5182306E-3,1.9687764E-2,-1.8470367E-2,9.777183E-2,-6.52511E-2,-1.6895464E-1,6.716113E-2,1.1083861E-1,-3.645074E-2,5.846987E-2,-6.52511E-2,1.6286469E-1,-0E0,-1.13873675E-1,8.875708E-3,1.0984741E-1,-2.3239184E-2,-1.7744187E-1,3.784487E-3,1.6636357E-1,-0E0,-7.540617E-2,9.5348045E-2,-1.8834038E-1,-0E0,1.7804238E-1,-1.7739758E-2,-1.425273E-1,1.9687764E-2,-0E0,1.9687764E-2,7.206865E-2,-3.645074E-2,-1.6430926E-1,8.721755E-3,2.108217E-1,1.2692495E-1],"categories":[],"categories_nodes":[],"categories_segments":[],"categories_sizes":[],"default_left":[0,0,0,0,0,0,0,0,0,0,0,0,0,0,0,0,0,0,0,0,0,0,0,0,0,0,0,0,0,0,0,0,0,0,0,0,0,0,0,0,0,0,0,0,0,0,0,0,0,0,0,0,0,0,0,0,0,0,0,0,0,0,0,0,0,0,0,0,0,0,0,0,0,0,0,0,0,0,0,0,0,0,0,0,0,0,0,0,0,0,0,0,0,0,0,0,0,0,0,0,0,0,0,0,0,0,0,0,0,0,0,0,0,0,0,0,0,0,0,0,0,0,0,0,0,0,0,0,0],"id":0,"left_children":[1,3,5,7,9,11,13,-1,15,17,19,21,23,25,27,29,31,33,35,37,39,41,-1,43,45,47,49,51,-1,-1,-1,53,55,57,59,61,63,-1,65,67,-1,69,71,-1,73,75,-1,77,79,81,83,85,87,-1,-1,-1,89,91,-1,-1,-1,-1,93,95,97,-1,99,101,103,105,-1,-1,-1,107,109,-1,111,113,115,117,119,-1,121,123,125,-1,127,-1,-1,-1,-1,-1,-1,-1,-1,-1,-1,-1,-1,-1,-1,-1,-1,-1,-1,-1,-1,-1,-1,-1,-1,-1,-1,-1,-1,-1,-1,-1,-1,-1,-1,-1,-1,-1,-1,-1,-1,-1,-1],"loss_changes":[3.1099012E4,8.5060547E2,4.932881E3,3.1115234E1,1.5146025E2,1.2837988E2,6.443262E2,0E0,4.759726E1,1.0186423E2,4.217369E1,3.1494751E1,1.1458944E2,2.828385E2,1.3665039E2,2.741388E1,6.533627E1,2.7543701E1,3.056905E1,2.5737804E1,1.62482E1,2.1155884E1,0E0,7.367413E1,2.2980778E1,2.6312366E2,3.2647003E1,7.207031E1,0E0,0E0,0E0,5.208353E0,2.9312798E1,3.2640991E0,2.9284567E-1,1.1404686E1,3.701979E1,0E0,1.4198933E1,1.8450882E1,0E0,4.918213E-1,2.0636966E0,0E0,5.966726E1,2.3532215E1,0E0,7.4103096E1,1.2501306E2,1.9370445E1,3.2681187E1,4.5285156E1,1.6891602E1,0E0,0E0,0E0,6.169114E0,3.8403168E1,0E0,0E0,0E0,0E0,5.492592E-1,2.6741758E1,4.760231E1,0E0,1.903779E1,7.922948E0,1.4417709E1,1.2850929E1,0E0,0E0,0E0,1.7202858E1,2.7772396E1,0E0,1.1452587E1,4.255599E1,2.7680489E1,5.9569214E1,2.0592554E1,0E0,2.9284567E-1,1.3148633E1,3.154836E1,0E0,4.586377E1,0E0,0E0,0E0,0E0,0E0,0E0,0E0,0E0,0E0,0E0,0E0,0E0,0E0,0E0,0E0,0E0,0E0,0E0,0E0,0E0,0E0,0E0,0E0,0E0,0E0,0E0,0E0,0E0,0E0,0E0,0E0,0E0,0E0,0E0,0E0,0E0,0E0,0E0,0E0,0E0,0E0,0E0],"parents":[2147483647,0,0,1,1,2,2,3,3,4,4,5,5,6,6,8,8,9,9,10,10,11,11,12,12,13,13,14,14,15,15,16,16,17,17,18,18,19,19,20,20,21,21,23,23,24,24,25,25,26,26,27,27,31,31,32,32,33,33,34,34,35,35,36,36,38,38,39,39,41,41,42,42,44,44,45,45,47,47,48,48,49,49,50,50,51,51,52,52,56,56,57,57,62,62,63,63,64,64,66,66,67,67,68,68,69,69,73,73,74,74,76,76,77,77,78,78,79,79,80,80,82,82,83,83,84,84,86,86],"right_children":[2,4,6,8,10,12,14,-1,16,18,20,22,24,26,28,30,32,34,36,38,40,42,-1,44,46,48,50,52,-1,-1,-1,54,56,58,60,62,64,-1,66,68,-1,70,72,-1,74,76,-1,78,80,82,84,86,88,-1,-1,-1,90,92,-1,-1,-1,-1,94,96,98,-1,100,102,104,106,-1,-1,-1,108,110,-1,112,114,116,118,120,-1,122,124,126,-1,128,-1,-1,-1,-1,-1,-1,-1,-1,-1,-1,-1,-1,-1,-1,-1,-1,-1,-1,-1,-1,-1,-1,-1,-1,-1,-1,-1,-1,-1,-1,-1,-1,-1,-1,-1,-1,-1,-1,-1,-1,-1,-1],"split_conditions":[8.8E-1,4.1E1,2.1E1,3E1,9.1E1,1.4E1,4.1E1,-2.5226277E-1,8.4095245E14,4.617686E14,3.9347162E14,3.427944E16,2.8482451E15,4.96E0,4.83E0,1E0,9.1329325E14,1E0,1E0,1.25E2,4.39E0,1E0,-0E0,4.51E0,4.55E0,4.03E0,1E0,8.6E1,-1.0664993E-1,-2.3483E-1,-0E0,4.02E0,1E0,7.77525E13,1E0,4.64E0,1E0,-1.3801368E-1,3.5E0,3.61E0,-2.8997138E-3,1.3516212E13,4.76427E15,-1.904149E-1,4.61E0,4.03E0,-4.4446915E-2,1E0,1E0,3.1193604E15,4.76E0,1.68E0,2.3304667E13,-0E0,1.18823044E-1,-1.7019539E-1,3.2E1,4.21E0,-2.0222478E-1,-0E0,1.9687764E-2,-1.5752862E-1,4.65E0,1E0,1.885856E15,-7.129485E-2,4.07E0,2.3077886E14,1E0,1.1559382E13,-2.3122686E-1,-4.8227977E-2,8.875708E-3,7.876017E14,1E0,-1.34997675E-2,4.65E0,2.8E1,1E0,4.74E0,1E0,-1.7480889E-1,4.74E0,4.61E0,3.8E1,-2.3239184E-2,4.95E0,-0E0,2.4168661E-1,5.42986E-2,-5.539394E-2,-1.7139797E-1,2.5182306E-3,1.9687764E-2,-1.8470367E-2,9.777183E-2,-6.52511E-2,-1.6895464E-1,6.716113E-2,1.1083861E-1,-3.645074E-2,5.846987E-2,-6.52511E-2,1.6286469E-1,-0E0,-1.13873675E-1,8.875708E-3,1.0984741E-1,-2.3239184E-2,-1.7744187E-1,3.784487E-3,1.6636357E-1,-0E0,-7.540617E-2,9.5348045E-2,-1.8834038E-1,-0E0,1.7804238E-1,-1.7739758E-2,-1.425273E-1,1.9687764E-2,-0E0,1.9687764E-2,7.206865E-2,-3.645074E-2,-1.6430926E-1,8.721755E-3,2.108217E-1,1.2692495E-1],"split_indices":[3,6,6,6,6,6,6,0,8,7,8,8,7,3,0,29,8,10,15,6,0,70,0,0,2,0,14,6,0,0,0,0,41,7,29,0,34,0,0,0,0,8,8,0,0,1,0,40,38,8,2,1,7,0,0,0,6,0,0,0,0,0,0,56,7,0,0,7,72,8,0,0,0,8,70,0,1,6,29,0,74,0,0,0,6,0,2,0,0,0,0,0,0,0,0,0,0,0,0,0,0,0,0,0,0,0,0,0,0,0,0,0,0,0,0,0,0,0,0,0,0,0,0,0,0,0,0,0,0],"split_type":[0,0,0,0,0,0,0,0,0,0,0,0,0,0,0,0,0,0,0,0,0,0,0,0,0,0,0,0,0,0,0,0,0,0,0,0,0,0,0,0,0,0,0,0,0,0,0,0,0,0,0,0,0,0,0,0,0,0,0,0,0,0,0,0,0,0,0,0,0,0,0,0,0,0,0,0,0,0,0,0,0,0,0,0,0,0,0,0,0,0,0,0,0,0,0,0,0,0,0,0,0,0,0,0,0,0,0,0,0,0,0,0,0,0,0,0,0,0,0,0,0,0,0,0,0,0,0,0,0],"sum_hessian":[1.2401638E4,5.3115156E3,7.0901226E3,4.829753E3,4.8176263E2,6.183199E2,6.4718022E3,4.583563E3,2.4618996E2,3.4344415E2,1.3831847E2,3.7931427E2,2.3900562E2,1.1669375E3,5.304865E3,1.5581285E2,9.0377106E1,2.023771E2,1.4106706E2,5.9814255E1,7.850421E1,3.705014E2,8.812851E0,1.9106566E2,4.7939957E1,1.0224332E3,1.4450421E2,5.292865E3,1.2E1,1.4525E2,1.0562851E1,1.5938553E1,7.443855E1,1.9531425E2,7.062851E0,3.181285E1,1.0925421E2,1.725E1,4.2564255E1,7.450421E1,4E0,3.5868854E2,1.1812851E1,1.151257E2,7.593996E1,4.1689957E1,6.25E0,1.3025421E2,8.921791E2,3.681285E1,1.0769136E2,2.2472102E3,3.0456548E3,1.25E0,1.4688553E1,5.606285E1,1.8375702E1,5.1938553E1,1.433757E2,2.25E0,4.812851E0,2.225E1,9.562851E0,7.237851E1,3.68757E1,8.25E0,3.4314255E1,1.8875702E1,5.562851E1,1.831285E1,3.403757E2,6.5E0,5.312851E0,4.0377106E1,3.556285E1,4.5E0,3.7189957E1,8.744136E1,4.281285E1,8.691162E2,2.306285E1,2.875E1,8.062851E0,6.856566E1,3.91257E1,5E0,2.2422102E3,1.5E0,3.0441548E3,1.1375702E1,7E0,2.725E1,2.4688553E1,4.812851E0,4.75E0,6.462851E1,7.75E0,2.625E1,1.0625702E1,2.8564255E1,5.75E0,1.1125702E1,7.75E0,5.337851E1,2.25E0,1.3E1,5.312851E0,3.5377106E1,5E0,3E1,5.562851E0,3.5439957E1,1.75E0,2.231285E1,6.512851E1,3.625E1,6.562851E0,8.5405334E2,1.5062851E1,1.825E1,4.812851E0,3.25E0,4.812851E0,6.281566E1,5.75E0,2.45E1,1.4625702E1,2.0227605E3,2.1944978E2],"tree_param":{"num_deleted":"0","num_feature":"78","num_nodes":"129","size_leaf_vector":"0"}},{"base_weights":[-6.7905127E-3,-1.5259398E0,1.2523695E0,-1.722993E0,-6.371066E-1,5.295565E-1,1.4930278E0,-2.228848E-1,-1.2470018E0,-1.0057428E0,2.001307E-1,6.606618E-1,-1.4779272E0,1.5117018E0,-8.723444E-1,-1.3616426E0,-0E0,-2.062056E-1,-7.344253E-1,-7.109581E-1,6.209099E-1,-1.3953443E0,7.8212667E-1,-2.0541883E-1,-0E0,1.0695298E-1,1.5443335E0,-1.5823963E-1,2.0845773E-4,-1.8853082E-1,-2.7491605E-1,5.276744E-1,-8.267385E-2,-4.4623515E-1,-2.0609571E-1,-1.7435917E-1,-4.6543945E-3,8.5707587E-1,-6.538035E-1,-0E0,-1.9693244E-1,9.1847914E-1,-2.2374488E-1,-3.8588017E-2,3.3031027E-3,-4.3862674E-1,9.115362E-1,1.3373463E0,1.6602231E0,-1.17604695E-1,2.767482E-2,-0E0,9.789657E-2,-6.291803E-1,3.2502866E-1,6.154608E-1,-5.237117E-1,1.1440803E-1,1.1054239E0,-0E0,-1.3163434E-1,-5.2143816E-2,9.167729E-3,4.5243832E-1,1.1168787E0,-8.2492155E-1,7.022721E-1,-1.1167943E0,4.8602664E-1,1.1049497E0,-0E0,1.4286737E0,7.260977E-1,-0E0,1.66411E0,-1.1412761E-2,7.6898135E-2,-1.1994008E-1,-5.356013E-3,-4.071436E-2,1.2035698E-1,9.4561815E-2,-0E0,-1.341263E-1,-0E0,-1.368957E-2,8.185884E-2,1.469504E-1,-0E0,-0E0,2.0580268E-2,-1.9346733E-2,9.391275E-2,1.4575964E-1,-9.078887E-2,-1.7515606E-1,-0E0,-0E0,1.2469057E-1,-1.6804162E-1,-0E0,9.691565E-2,-0E0,-0E0,1.5617608E-1,-0E0,1.8178329E-1,-7.8481056E-2,1.0440034E-1,1.728746E-2,2.1129689E-1],"categories":[],"categories_nodes":[],"categories_segments":[],"categories_sizes":[],"default_left":[0,0,0,0,0,0,0,0,0,0,0,0,0,0,0,0,0,0,0,0,0,0,0,0,0,0,0,0,0,0,0,0,0,0,0,0,0,0,0,0,0,0,0,0,0,0,0,0,0,0,0,0,0,0,0,0,0,0,0,0,0,0,0,0,0,0,0,0,0,0,0,0,0,0,0,0,0,0,0,0,0,0,0,0,0,0,0,0,0,0,0,0,0,0,0,0,0,0,0,0,0,0,0,0,0,0,0,0,0,0,0],"id":1,"left_children":[1,3,5,7,9,11,13,-1,15,17,19,21,23,25,27,29,31,-1,33,35,37,39,41,-1,43,45,47,-1,-1,-1,49,51,-1,53,-1,-1,55,57,59,61,-1,63,65,-1,-1,67,69,71,73,-1,75,-1,-1,77,79,81,83,85,87,89,-1,-1,-1,91,93,95,97,99,101,103,-1,105,107,-1,109,-1,-1,-1,-1,-1,-1,-1,-1,-1,-1,-1,-1,-1,-1,-1,-1,-1,-1,-1,-1,-1,-1,-1,-1,-1,-1,-1,-1,-1,-1,-1,-1,-1,-1,-1,-1],"loss_changes":[2.3446713E4,9.470781E2,1.143835E3,3.86084E1,3.247528E2,4.463051E2,2.3605078E2,0E0,5.3965942E1,9.456171E1,1.2279934E2,4.0219647E2,1.5422699E1,2.1429883E2,2.3051405E1,2.8792908E1,1.4777662E1,0E0,1.1332657E2,3.4698E1,7.32029E1,1.1332535E1,2.1489783E2,0E0,1.2832264E0,6.20308E1,7.716016E1,0E0,0E0,0E0,1.7006746E1,6.702976E0,0E0,6.206526E1,0E0,0E0,2.092497E1,2.6067001E1,1.4897326E1,2.5996187E0,0E0,1.0840845E2,1.0548216E2,0E0,0E0,5.555524E1,1.8520004E1,7.657129E1,3.0583984E1,0E0,6.655215E0,0E0,0E0,5.6154343E1,3.771897E1,3.5646954E0,1.9009815E1,1.2419075E1,1.3842316E1,3.199886E-1,0E0,0E0,0E0,7.968113E1,6.625964E1,6.1303085E1,1.5079189E1,4.1413345E0,9.202282E0,1.31254425E1,0E0,2.113623E1,3.964589E1,0E0,7.65625E-1,0E0,0E0,0E0,0E0,0E0,0E0,0E0,0E0,0E0,0E0,0E0,0E0,0E0,0E0,0E0,0E0,0E0,0E0,0E0,0E0,0E0,0E0,0E0,0E0,0E0,0E0,0E0,0E0,0E0,0E0,0E0,0E0,0E0,0E0,0E0,0E0],"parents":[2147483647,0,0,1,1,2,2,3,3,4,4,5,5,6,6,8,8,9,9,10,10,11,11,12,12,13,13,14,14,15,15,16,16,18,18,19,19,20,20,21,21,22,22,24,24,25,25,26,26,30,30,31,31,33,33,36,36,37,37,38,38,39,39,41,41,42,42,45,45,46,46,47,47,48,48,50,50,53,53,54,54,55,55,56,56,57,57,58,58,59,59,63,63,64,64,65,65,66,66,67,67,68,68,69,69,71,71,72,72,74,74],"right_children":[2,4,6,8,10,12,14,-1,16,18,20,22,24,26,28,30,32,-1,34,36,38,40,42,-1,44,46,48,-1,-1,-1,50,52,-1,54,-1,-1,56,58,60,62,-1,64,66,-1,-1,68,70,72,74,-1,76,-1,-1,78,80,82,84,86,88,90,-1,-1,-1,92,94,96,98,100,102,104,-1,106,108,-1,110,-1,-1,-1,-1,-1,-1,-1,-1,-1,-1,-1,-1,-1,-1,-1,-1,-1,-1,-1,-1,-1,-1,-1,-1,-1,-1,-1,-1,-1,-1,-1,-1,-1,-1,-1,-1],"split_conditions":[2.31E2,1.3E2,4.27E2,1.04E2,1E0,4.74E0,4.83E0,-2.228848E-1,3.5823635E15,3.91E0,4.15E0,3.11E0,1E0,3.3E0,1E0,1E0,1.12E2,-2.062056E-1,4.7E0,4.8091675E14,4.69E0,2.4766667E13,1E0,-2.0541883E-1,1E0,1.149E3,7.71E2,-1.5823963E-1,2.0845773E-4,-1.8853082E-1,4.39E0,4.11E0,-8.267385E-2,4.59E0,-2.0609571E-1,-1.7435917E-1,5.7467454E14,4.3677395E14,8.195351E13,2.20635E13,-1.9693244E-1,4.19E0,1E0,-3.8588017E-2,3.3031027E-3,2.5883135E15,2.740009E14,1E0,2.4766667E13,-1.17604695E-1,1E0,-0E0,9.789657E-2,1.2960111E15,1E0,1E0,1.96E2,1E0,1E0,7.567528E13,-1.3163434E-1,-5.2143816E-2,9.167729E-3,3.4861283E14,1E0,1.6309952E15,4.740921E14,1E0,1E0,1.02188E14,-0E0,3.2665667E13,3.72E0,-0E0,3.43E0,-1.1412761E-2,7.6898135E-2,-1.1994008E-1,-5.356013E-3,-4.071436E-2,1.2035698E-1,9.4561815E-2,-0E0,-1.341263E-1,-0E0,-1.368957E-2,8.185884E-2,1.469504E-1,-0E0,-0E0,2.0580268E-2,-1.9346733E-2,9.391275E-2,1.4575964E-1,-9.078887E-2,-1.7515606E-1,-0E0,-0E0,1.2469057E-1,-1.6804162E-1,-0E0,9.691565E-2,-0E0,-0E0,1.5617608E-1,-0E0,1.8178329E-1,-7.8481056E-2,1.0440034E-1,1.728746E-2,2.1129689E-1],"split_indices":[5,5,5,5,19,0,0,0,7,0,0,0,28,0,76,28,5,0,0,8,0,7,42,0,36,5,5,0,0,0,0,0,0,0,0,0,8,8,8,7,0,0,37,0,0,8,7,42,7,0,45,0,0,8,37,40,5,51,53,8,0,0,0,8,17,8,7,52,39,8,0,7,0,0,0,0,0,0,0,0,0,0,0,0,0,0,0,0,0,0,0,0,0,0,0,0,0,0,0,0,0,0,0,0,0,0,0,0,0,0,0],"split_type":[0,0,0,0,0,0,0,0,0,0,0,0,0,0,0,0,0,0,0,0,0,0,0,0,0,0,0,0,0,0,0,0,0,0,0,0,0,0,0,0,0,0,0,0,0,0,0,0,0,0,0,0,0,0,0,0,0,0,0,0,0,0,0,0,0,0,0,0,0,0,0,0,0,0,0,0,0,0,0,0,0,0,0,0,0,0,0,0,0,0,0,0,0,0,0,0,0,0,0,0,0,0,0,0,0,0,0,0,0,0,0],"sum_hessian":[1.22417295E4,5.5501685E3,6.6915605E3,4.5302437E3,1.0199253E3,1.6853184E3,5.006242E3,4.1775938E3,3.5264984E2,7.135306E2,3.0639468E2,1.590228E3,9.509032E1,4.9728955E3,3.3346577E1,3.236949E2,2.8954954E1,1.9700786E2,5.165227E2,8.939354E1,2.1700114E2,8.0871506E1,1.5093566E3,8.3654755E1,1.1435561E1,1.1899139E2,4.8539043E3,2.7302822E1,6.043753E0,2.8119055E2,4.250434E1,1.834193E1,1.0613024E1,4.0526312E2,1.11259605E2,3.682072E1,5.257282E1,1.902276E2,2.6773552E1,1.241953E1,6.845197E1,1.3365148E3,1.728418E2,6.428551E0,5.0070095E0,6.7158554E1,5.1832832E1,1.7991099E3,3.0547944E3,1.6765623E1,2.5738716E1,2.4618921E0,1.5880039E1,3.3676624E2,6.84969E1,1.6540031E1,3.6032787E1,5.816031E1,1.3206729E2,6.786075E0,1.9987478E1,7.659763E0,4.759767E0,4.1789594E2,9.1861884E2,1.10356094E2,6.2485703E1,4.2695717E1,2.4462837E1,4.8106792E1,3.7260387E0,1.545714E3,2.5339586E2,3.2436697E0,3.0515508E3,1.5418751E1,1.0319965E1,2.0709042E2,1.2967581E2,2.9326948E1,3.9169952E1,1.5307977E1,1.2320541E0,2.025844E1,1.5774346E1,3.4848347E1,2.3311962E1,1.2960014E2,2.4671495E0,1.9736025E0,4.8124723E0,1.27446495E2,2.9044943E2,9.089583E2,9.66048E0,6.66656E1,4.369049E1,1.8684454E1,4.3801247E1,3.050151E1,1.2194207E1,2.1243748E1,3.2190888E0,2.2449222E0,4.586187E1,2.7250712E0,1.5429889E3,9.173558E0,2.442223E2,1.2715873E1,3.038835E3],"tree_param":{"num_deleted":"0","num_feature":"78","num_nodes":"111","size_leaf_vector":"0"}},{"base_weights":[-3.4776176E-3,-1.4202543E0,1.1357526E0,-1.5549467E0,-5.683254E-1,4.1897473E-1,1.2902732E0,-2.0067108E-1,3.8278493E-1,-7.693537E-1,1.12739205E-1,-7.501901E-2,8.198606E-1,1.0404214E0,1.4784359E0,-1.0626474E-1,1.0521023E0,-9.370987E-1,-1.7684811E-1,4.729893E-1,-2.5812766E-1,1.07067056E-1,-1.2811208E-1,8.7637186E-1,-1.084604E-1,1.1584154E0,2.6471853E-1,1.4828017E0,-0E0,-0E0,1.4875516E-1,-1.1473402E0,-1.7613783E-1,-1.3849217E-1,-0E0,6.276859E-1,-3.4351774E-2,-7.2120833E-1,2.2359566E-1,-3.6625713E-1,2.9046017E-1,1.0427444E0,1.9440128E-1,1.193429E0,-9.536062E-2,-1.23270124E-1,9.96408E-1,-0E0,1.880563E-1,-1.1767532E0,-0E0,2.0729034E-1,-1.5036792E-1,-3.8548118E-1,3.3573535E-1,7.2126245E-1,-0E0,-9.324453E-1,-0E0,4.4389787E-1,-0E0,-8.2261187E-1,5.75535E-1,-1.3678105E-1,5.5513346E-1,1.0915146E0,-6.731395E-2,-2.8028995E-1,7.242567E-1,9.500966E-1,1.7254224E-1,-1.4169161E-1,3.4468314E-1,-6.0522175E-1,3.4667796E-1,-0E0,1.172846E0,-1.6004078E-1,-5.072575E-2,-4.2450976E-2,1.8811205E-3,-5.45248E-2,7.591217E-2,2.8117137E-2,-1.0640524E-1,6.979623E-2,-4.6704996E-2,9.992329E-2,-0E0,-0E0,-1.5328476E-1,7.777361E-2,-0E0,-1.4181857E-1,3.3222068E-2,9.5974356E-2,-0E0,-0E0,-1.2585923E-1,8.151707E-2,-5.817669E-2,1.425275E-1,-0E0,-1.3341989E-1,5.4091107E-2,1.0272258E-1,-0E0,6.350054E-2,1.6408262E-1,1.0040634E-1,-4.9207788E-2,-1.4905638E-1,2.913629E-2,7.1567394E-2,-7.7284224E-2,-3.2171443E-2,4.367082E-2,1.5382397E-1,-0E0],"categories":[],"categories_nodes":[],"categories_segments":[],"categories_sizes":[],"default_left":[0,0,0,0,0,0,0,0,0,0,0,0,0,0,0,0,0,0,0,0,0,0,0,0,0,0,0,0,0,0,0,0,0,0,0,0,0,0,0,0,0,0,0,0,0,0,0,0,0,0,0,0,0,0,0,0,0,0,0,0,0,0,0,0,0,0,0,0,0,0,0,0,0,0,0,0,0,0,0,0,0,0,0,0,0,0,0,0,0,0,0,0,0,0,0,0,0,0,0,0,0,0,0,0,0,0,0,0,0,0,0,0,0,0,0,0,0,0,0],"id":2,"left_children":[1,3,5,7,9,11,13,-1,15,17,19,21,23,25,27,-1,29,31,33,35,37,39,-1,41,-1,43,45,47,-1,-1,-1,49,51,-1,53,55,-1,57,59,61,63,65,67,69,71,73,75,-1,-1,77,79,81,-1,83,85,87,-1,89,-1,91,-1,93,95,97,99,101,-1,103,105,107,-1,-1,109,111,113,115,117,-1,-1,-1,-1,-1,-1,-1,-1,-1,-1,-1,-1,-1,-1,-1,-1,-1,-1,-1,-1,-1,-1,-1,-1,-1,-1,-1,-1,-1,-1,-1,-1,-1,-1,-1,-1,-1,-1,-1,-1,-1,-1],"loss_changes":[1.9285455E4,5.8847363E2,7.159424E2,2.6988867E2,1.0795706E2,2.425929E2,2.2466699E2,0E0,6.4663795E1,4.8434174E1,2.4973928E1,9.859824E1,6.892496E1,2.0423535E2,3.094043E1,0E0,1.1111317E1,5.9475098E1,3.1633135E1,1.531879E1,2.2168999E1,3.888031E1,0E0,6.3194946E1,0E0,9.9400635E1,1.0187462E2,9.925781E0,0E0,0E0,0E0,5.9417114E0,5.3150658E1,0E0,1.6845957E1,9.9712105E0,0E0,1.1158356E1,4.479976E0,5.5195217E1,4.1913383E1,4.813672E1,4.176074E1,5.465869E1,3.424456E1,5.2566692E1,1.5026245E1,0E0,0E0,5.338745E0,1.6345235E0,2.3819822E1,0E0,2.0560766E1,1.5106713E1,7.684948E0,0E0,1.1756538E1,0E0,4.8587785E0,0E0,3.6660625E1,7.470975E0,2.1591698E1,2.3344109E1,2.314685E1,0E0,4.9022648E1,8.843544E0,1.1478668E2,0E0,0E0,1.8447126E1,6.543795E1,2.4318325E1,3.819594E0,7.9642334E0,0E0,0E0,0E0,0E0,0E0,0E0,0E0,0E0,0E0,0E0,0E0,0E0,0E0,0E0,0E0,0E0,0E0,0E0,0E0,0E0,0E0,0E0,0E0,0E0,0E0,0E0,0E0,0E0,0E0,0E0,0E0,0E0,0E0,0E0,0E0,0E0,0E0,0E0,0E0,0E0,0E0,0E0],"parents":[2147483647,0,0,1,1,2,2,3,3,4,4,5,5,6,6,8,8,9,9,10,10,11,11,12,12,13,13,14,14,16,16,17,17,18,18,19,19,20,20,21,21,23,23,25,25,26,26,27,27,31,31,32,32,34,34,35,35,37,37,38,38,39,39,40,40,41,41,42,42,43,43,44,44,45,45,46,46,49,49,50,50,51,51,53,53,54,54,55,55,57,57,59,59,61,61,62,62,63,63,64,64,65,65,67,67,68,68,69,69,72,72,73,73,74,74,75,75,76,76],"right_children":[2,4,6,8,10,12,14,-1,16,18,20,22,24,26,28,-1,30,32,34,36,38,40,-1,42,-1,44,46,48,-1,-1,-1,50,52,-1,54,56,-1,58,60,62,64,66,68,70,72,74,76,-1,-1,78,80,82,-1,84,86,88,-1,90,-1,92,-1,94,96,98,100,102,-1,104,106,108,-1,-1,110,112,114,116,118,-1,-1,-1,-1,-1,-1,-1,-1,-1,-1,-1,-1,-1,-1,-1,-1,-1,-1,-1,-1,-1,-1,-1,-1,-1,-1,-1,-1,-1,-1,-1,-1,-1,-1,-1,-1,-1,-1,-1,-1,-1,-1],"split_conditions":[2.9E1,2E1,4.3E1,1E0,2.7969614E15,6.243287E14,8.6E1,-2.0067108E-1,9E0,2.7E1,1E0,1E0,1E0,1E0,1E0,-1.0626474E-1,1.4928704E15,1E0,1E0,1E0,1E0,1E0,-1.2811208E-1,1E0,-1.084604E-1,1E0,1E0,6.618614E12,-0E0,-0E0,1.4875516E-1,1E0,1E0,-1.3849217E-1,3.428581E14,1E0,-3.4351774E-2,2.8E1,1E0,1E0,1.599659E14,1E0,1E0,7.095513E14,1E0,6.6E1,3.428581E14,-0E0,1.880563E-1,2.6E1,1E0,2.3E1,-1.5036792E-1,5.518051E13,1E0,1E0,-0E0,3.3648052E15,-0E0,1E0,-0E0,1E0,3.8E1,1.1831718E14,1E0,1E0,-6.731395E-2,1E0,1E0,1E0,1.7254224E-1,-1.4169161E-1,1E0,1.8532838E15,1E0,1E0,1E0,-1.6004078E-1,-5.072575E-2,-4.2450976E-2,1.8811205E-3,-5.45248E-2,7.591217E-2,2.8117137E-2,-1.0640524E-1,6.979623E-2,-4.6704996E-2,9.992329E-2,-0E0,-0E0,-1.5328476E-1,7.777361E-2,-0E0,-1.4181857E-1,3.3222068E-2,9.5974356E-2,-0E0,-0E0,-1.2585923E-1,8.151707E-2,-5.817669E-2,1.425275E-1,-0E0,-1.3341989E-1,5.4091107E-2,1.0272258E-1,-0E0,6.350054E-2,1.6408262E-1,1.0040634E-1,-4.9207788E-2,-1.4905638E-1,2.913629E-2,7.1567394E-2,-7.7284224E-2,-3.2171443E-2,4.367082E-2,1.5382397E-1,-0E0],"split_indices":[6,6,6,13,8,8,6,0,6,6,40,42,60,42,58,0,8,56,11,56,41,11,0,34,0,60,37,8,0,0,0,70,40,0,8,49,0,6,16,23,8,20,37,8,65,6,8,0,0,6,64,6,0,8,34,71,0,8,0,19,0,74,6,8,23,12,0,64,12,37,0,0,40,8,56,34,71,0,0,0,0,0,0,0,0,0,0,0,0,0,0,0,0,0,0,0,0,0,0,0,0,0,0,0,0,0,0,0,0,0,0,0,0,0,0,0,0,0,0],"split_type":[0,0,0,0,0,0,0,0,0,0,0,0,0,0,0,0,0,0,0,0,0,0,0,0,0,0,0,0,0,0,0,0,0,0,0,0,0,0,0,0,0,0,0,0,0,0,0,0,0,0,0,0,0,0,0,0,0,0,0,0,0,0,0,0,0,0,0,0,0,0,0,0,0,0,0,0,0,0,0,0,0,0,0,0,0,0,0,0,0,0,0,0,0,0,0,0,0,0,0,0,0,0,0,0,0,0,0,0,0,0,0,0,0,0,0,0,0,0,0],"sum_hessian":[1.1932606E4,5.320671E3,6.611936E3,4.5812397E3,7.394308E2,1.1862952E3,5.4256406E3,4.519379E3,6.186116E1,5.7895856E2,1.6047227E2,5.2544745E2,6.608478E2,2.3689463E3,3.0566943E3,1.7148855E1,4.4712307E1,4.3771613E2,1.4124242E2,9.0967224E1,6.950505E1,4.3838327E2,8.7064156E1,6.471355E2,1.3712288E1,2.0443812E3,3.2456516E2,3.0527502E3,3.9440906E0,2.183469E0,4.2528835E1,3.3207996E2,1.0563615E2,2.3050478E1,1.1819194E2,8.4870735E1,6.09649E0,4.1776936E1,2.7728113E1,1.08597E2,3.2978625E2,5.0798636E2,1.3914915E2,1.9951891E3,4.919216E1,2.0915959E2,1.1540557E2,1.2431554E0,3.051507E3,3.1961636E2,1.2463605E1,7.524434E1,3.0391811E1,4.4921062E1,7.327088E1,8.166904E1,3.2016985E0,3.4886845E1,6.8900914E0,2.4310875E1,3.4172382E0,7.9311264E1,2.928573E1,1.16315414E2,2.1347086E2,4.9966516E2,8.321189E0,6.750694E1,7.1642204E1,8.545099E2,1.1406792E3,1.6695948E1,3.2496212E1,1.1035347E2,9.880612E1,2.3222612E1,9.218296E1,2.7453204E2,4.5084328E1,7.2203894E0,5.2432156E0,2.0846533E1,5.43978E1,1.3532155E1,3.138891E1,6.5768906E1,7.5019727E0,7.9473145E1,2.195893E0,9.098438E0,2.5788406E1,2.212034E1,2.1905339E0,6.770059E1,1.1610672E1,2.6836613E1,2.449118E0,9.940456E1,1.6910856E1,2.0587154E2,7.599322E0,4.8833768E2,1.1327486E1,3.5780586E1,3.1726358E1,6.9153946E1,2.488263E0,3.8880823E2,4.6570166E2,2.6361538E1,6.134674E0,6.9263565E1,4.1089905E1,8.948757E1,9.318555E0,5.1527863E0,1.8069826E1,9.095122E1,1.2317488E0],"tree_param":{"num_deleted":"0","num_feature":"78","num_nodes":"119","size_leaf_vector":"0"}},{"base_weights":[3.9057971E-3,-1.4165239E0,1.038382E0,-1.9008711E-1,-6.086818E-1,-7.2625196E-1,1.2373304E0,-9.9341154E-1,-1.8966173E-1,-1.3152672E0,-1.2610802E-1,7.083526E-1,1.3367974E0,-1.1441314E0,2.7656302E-1,-6.257194E-1,3.6921706E-2,-1.903323E-2,-1.7237695E-1,-3.503807E-1,8.845394E-1,8.416263E-1,-0E0,1.3803631E0,8.6944455E-1,-1.205484E0,-0E0,-0E0,7.339458E-2,-1.0067935E0,3.945733E-2,3.1128758E-1,-8.565542E-1,-7.1166664E-2,2.3962554E-2,-5.991386E-1,1.0528425E0,1.0510311E0,-0E0,-0E0,9.374536E-1,-6.0326976E-1,5.888341E-1,-0E0,1.3817168E0,-4.8918203E-1,9.921369E-1,-1.2581131E0,-0E0,-1.9160958E-1,-0E0,-3.1958323E-2,4.1401964E-1,4.9134475E-1,-3.59762E-1,-1.4004377E-1,-0E0,-9.8112726E-1,1.482689E-1,1.4452001E-1,-0E0,1.4565971E-1,-0E0,-1.2736803E-1,3.9941016E-1,9.72473E-1,-2.0042875E-1,-0E0,-1.1379113E0,-0E0,7.9940003E-1,1.227653E0,1.8152046E-1,-1.3476692E-1,-0E0,1.0151596E0,-0E0,-9.021383E-3,-1.6612735E-1,-4.9607422E-2,2.8844787E-2,7.327911E-2,-0E0,-0E0,8.473699E-2,-0E0,-1.0364648E-1,-1.4795527E-1,-1.9174411E-3,-1.0128737E-1,7.065851E-2,7.663016E-2,-0E0,1.3196474E-1,2.816189E-2,-8.71204E-2,-0E0,-5.0368596E-2,4.3717217E-2,-0E0,-1.8367814E-1,-5.546754E-2,-0E0,1.2339233E-1,-0E0,1.6042158E-1,2.5322039E-2,3.8333226E-2,-0E0,1.3282077E-1,-0E0],"categories":[],"categories_nodes":[],"categories_segments":[],"categories_sizes":[],"default_left":[0,0,0,0,0,0,0,0,0,0,0,0,0,0,0,0,0,0,0,0,0,0,0,0,0,0,0,0,0,0,0,0,0,0,0,0,0,0,0,0,0,0,0,0,0,0,0,0,0,0,0,0,0,0,0,0,0,0,0,0,0,0,0,0,0,0,0,0,0,0,0,0,0,0,0,0,0,0,0,0,0,0,0,0,0,0,0,0,0,0,0,0,0,0,0,0,0,0,0,0,0,0,0,0,0,0,0,0,0,0,0],"id":3,"left_children":[1,3,5,-1,7,9,11,13,15,17,19,21,23,25,27,29,31,33,-1,35,37,39,41,43,45,47,-1,-1,-1,49,51,53,55,-1,-1,57,59,61,-1,63,65,67,69,-1,71,73,75,77,-1,-1,79,-1,81,83,85,-1,-1,87,89,-1,-1,-1,-1,-1,91,93,95,97,99,101,103,105,-1,-1,107,109,-1,-1,-1,-1,-1,-1,-1,-1,-1,-1,-1,-1,-1,-1,-1,-1,-1,-1,-1,-1,-1,-1,-1,-1,-1,-1,-1,-1,-1,-1,-1,-1,-1,-1,-1],"loss_changes":[1.6952396E4,3.0556055E2,2.3555693E3,0E0,6.639165E1,2.2710175E2,2.9343555E2,5.4475464E1,2.91405E1,8.729126E0,7.749902E1,9.678461E1,7.637695E1,2.361795E1,5.57215E0,3.2260185E1,3.6419872E1,6.4240704E0,0E0,1.0514931E2,1.5358006E1,6.13396E1,5.815875E1,1.3825195E1,8.4871704E1,1.6491425E1,0E0,0E0,0E0,2.7219818E1,5.82059E0,1.8350998E1,5.833353E0,0E0,0E0,8.246626E1,6.6587486E0,9.84623E0,0E0,3.888301E1,3.6846558E1,3.399527E1,1.5278048E1,0E0,2.4433594E0,1.8677069E1,1.6793518E1,1.6125183E0,0E0,0E0,4.530822E0,0E0,4.259653E0,1.4919699E1,8.932861E0,0E0,0E0,2.3437027E1,3.5646694E1,0E0,0E0,0E0,0E0,0E0,9.119416E0,2.6054749E1,7.0114417E0,6.4966936E0,2.5234344E1,2.7661843E0,1.1558819E1,3.5239624E1,0E0,0E0,1.6628118E0,1.4043884E1,0E0,0E0,0E0,0E0,0E0,0E0,0E0,0E0,0E0,0E0,0E0,0E0,0E0,0E0,0E0,0E0,0E0,0E0,0E0,0E0,0E0,0E0,0E0,0E0,0E0,0E0,0E0,0E0,0E0,0E0,0E0,0E0,0E0,0E0,0E0],"parents":[2147483647,0,0,1,1,2,2,4,4,5,5,6,6,7,7,8,8,9,9,10,10,11,11,12,12,13,13,14,14,15,15,16,16,17,17,19,19,20,20,21,21,22,22,23,23,24,24,25,25,29,29,30,30,31,31,32,32,35,35,36,36,37,37,39,39,40,40,41,41,42,42,44,44,45,45,46,46,47,47,50,50,52,52,53,53,54,54,57,57,58,58,64,64,65,65,66,66,67,67,68,68,69,69,70,70,71,71,74,74,75,75],"right_children":[2,4,6,-1,8,10,12,14,16,18,20,22,24,26,28,30,32,34,-1,36,38,40,42,44,46,48,-1,-1,-1,50,52,54,56,-1,-1,58,60,62,-1,64,66,68,70,-1,72,74,76,78,-1,-1,80,-1,82,84,86,-1,-1,88,90,-1,-1,-1,-1,-1,92,94,96,98,100,102,104,106,-1,-1,108,110,-1,-1,-1,-1,-1,-1,-1,-1,-1,-1,-1,-1,-1,-1,-1,-1,-1,-1,-1,-1,-1,-1,-1,-1,-1,-1,-1,-1,-1,-1,-1,-1,-1,-1,-1],"split_conditions":[1.08E0,4.1E1,2.3E1,-1.9008711E-1,4.66E2,1.04E2,3.23E2,1E0,1E0,9.501334E12,3.59E2,4.95E0,5E0,6.7E-1,4.261695E14,1E0,1E0,8.2923335E12,-1.7237695E-1,1E0,4.89E0,1.65E2,1E0,2.3304667E13,4.1E1,2.1233195E15,-0E0,-0E0,7.339458E-2,4.4064344E14,7.9E1,1E0,1E0,-7.1166664E-2,2.3962554E-2,1E0,1.65E2,1E0,-0E0,2.7E1,1E0,1.89E2,1E0,-0E0,5.63E2,1.0948984E15,1E0,1.39E2,-0E0,-1.9160958E-1,1E0,-3.1958323E-2,1E0,1E0,5.39595E13,-1.4004377E-1,-0E0,1E0,1.6E1,1.4452001E-1,-0E0,1.4565971E-1,-0E0,-1.2736803E-1,4.0075058E14,1E0,2.3203137E15,3.0339565E14,6.0665E13,1E0,2.4208919E14,1E0,1.8152046E-1,-1.3476692E-1,1.3222485E15,1E0,-0E0,-9.021383E-3,-1.6612735E-1,-4.9607422E-2,2.8844787E-2,7.327911E-2,-0E0,-0E0,8.473699E-2,-0E0,-1.0364648E-1,-1.4795527E-1,-1.9174411E-3,-1.0128737E-1,7.065851E-2,7.663016E-2,-0E0,1.3196474E-1,2.816189E-2,-8.71204E-2,-0E0,-5.0368596E-2,4.3717217E-2,-0E0,-1.8367814E-1,-5.546754E-2,-0E0,1.2339233E-1,-0E0,1.6042158E-1,2.5322039E-2,3.8333226E-2,-0E0,1.3282077E-1,-0E0],"split_indices":[3,6,6,0,5,5,5,29,11,7,5,3,3,3,7,37,65,7,0,13,3,5,37,7,6,7,0,0,0,7,6,26,37,0,0,19,5,26,0,6,43,5,11,0,5,7,30,5,0,0,51,0,19,15,7,0,0,51,6,0,0,0,0,0,7,42,7,7,7,57,7,75,0,0,7,55,0,0,0,0,0,0,0,0,0,0,0,0,0,0,0,0,0,0,0,0,0,0,0,0,0,0,0,0,0,0,0,0,0,0,0],"split_type":[0,0,0,0,0,0,0,0,0,0,0,0,0,0,0,0,0,0,0,0,0,0,0,0,0,0,0,0,0,0,0,0,0,0,0,0,0,0,0,0,0,0,0,0,0,0,0,0,0,0,0,0,0,0,0,0,0,0,0,0,0,0,0,0,0,0,0,0,0,0,0,0,0,0,0,0,0,0,0,0,0,0,0,0,0,0,0,0,0,0,0,0,0,0,0,0,0,0,0,0,0,0,0,0,0,0,0,0,0,0,0],"sum_hessian":[1.1524297E4,4.8519473E3,6.672349E3,4.3820693E3,4.6987833E2,6.7012933E2,6.0022197E3,2.3010254E2,2.3977577E2,3.2729074E2,3.4283856E2,9.717214E2,5.030498E3,2.1178806E2,1.8314476E1,8.9263916E1,1.5051186E2,1.7145208E1,3.1014554E2,2.9075632E2,5.2082268E1,8.228416E2,1.4887978E2,4.573324E3,4.571738E2,2.063056E2,5.4824634E0,3.1813698E0,1.5133106E1,6.1761333E1,2.750258E1,1.2542738E2,2.5084475E1,1.1618894E1,5.526314E0,2.5522092E2,3.553539E1,4.8657124E1,3.4251423E0,9.1246895E1,7.315947E2,7.779418E1,7.1085594E1,1.7303897E0,4.571594E3,3.0830145E1,4.2634363E2,1.9922583E2,7.0797725E0,3.5204216E1,2.655712E1,5.1865396E0,2.2316042E1,1.0953247E2,1.5894913E1,1.6918163E1,8.166312E0,1.7423914E2,8.098177E1,3.4313683E1,1.221706E0,4.6921333E1,1.7357923E0,1.852762E1,7.271927E1,7.173832E2,1.4211559E1,3.4934742E1,4.285944E1,1.1955509E1,5.913008E1,1.2186497E3,3.3529443E3,1.7262087E1,1.3568058E1,4.2319254E2,3.1511123E0,1.5494041E1,1.8373178E2,1.6299952E1,1.0257167E1,2.0604712E1,1.7113299E0,2.041733E1,8.911514E1,5.371965E0,1.0522947E1,1.3803638E2,3.6202766E1,1.6623276E1,6.43585E1,5.2522938E1,2.0196335E1,6.448836E2,7.2499596E1,9.343397E0,4.8681626E0,7.970253E0,2.6964487E1,7.251465E0,3.5607975E1,7.117778E0,4.8377314E0,4.9644566E1,9.485516E0,1.1658179E3,5.2831856E1,1.085055E1,2.7175083E0,4.092134E2,1.3979133E1],"tree_param":{"num_deleted":"0","num_feature":"78","num_nodes":"111","size_leaf_vector":"0"}},{"base_weights":[-4.7152406E-3,-1.3248372E0,9.455693E-1,-1.7633294E-1,-3.2504407E-1,-2.9904655E-1,1.1913158E0,-5.323073E-1,2.716409E-1,-1.230526E0,6.8328924E-2,1.2489204E0,6.169725E-1,-1.5624091E-1,-1.1968569E0,5.0066143E-1,-5.360691E-2,-0E0,-1.6216399E-1,-2.1100053E-1,4.8129812E-1,1.03756E0,1.6702737E-1,2.2834826E-2,9.91332E-1,-4.3996218E-1,5.967997E-1,-1.7151079E-1,-0E0,6.1377203E-1,-0E0,-0E0,1.8934522E-2,2.9283931E-2,-1.0152084E0,5.868146E-1,-4.657566E-1,1.0494896E0,-2.3203958E-2,-4.3553776E-1,5.985606E-1,1.034244E0,-0E0,-6.994657E-1,3.0173007E-1,9.0358414E-2,-0E0,7.3263824E-1,-0E0,2.1428354E-1,-6.948039E-1,-1.2747805E0,7.537721E-2,-0E0,7.513686E-1,-1.1083584E-1,-0E0,1.1452334E0,7.014627E-1,-7.413244E-1,2.8734758E-1,6.9324976E-1,-0E0,1.0565195E0,-0E0,-2.2328913E-2,2.3424147E-2,-1.2572317E-1,-0E0,-0E0,6.032892E-2,-0E0,1.10336386E-1,-3.60588E-2,5.805816E-2,-1.6458087E-1,1.4810094E-2,-1.7801365E-1,-0E0,4.993079E-2,-0E0,2.1897946E-2,-6.851557E-2,1.0269395E-1,-0E0,1.4754309E-1,-0E0,1.3294309E-2,1.2629776E-1,-1.17351815E-1,-0E0,-0E0,6.536441E-2,9.499056E-2,-0E0,-2.7501542E-2,-0E0,1.3614568E-1,-0E0],"categories":[],"categories_nodes":[],"categories_segments":[],"categories_sizes":[],"default_left":[0,0,0,0,0,0,0,0,0,0,0,0,0,0,0,0,0,0,0,0,0,0,0,0,0,0,0,0,0,0,0,0,0,0,0,0,0,0,0,0,0,0,0,0,0,0,0,0,0,0,0,0,0,0,0,0,0,0,0,0,0,0,0,0,0,0,0,0,0,0,0,0,0,0,0,0,0,0,0,0,0,0,0,0,0,0,0,0,0,0,0,0,0,0,0,0,0,0,0],"id":4,"left_children":[1,3,5,-1,7,9,11,13,15,17,19,21,23,25,27,29,-1,31,-1,33,35,37,-1,39,41,43,45,-1,-1,47,-1,-1,-1,49,51,53,55,57,-1,59,61,63,65,67,69,-1,-1,71,-1,73,75,77,79,81,83,-1,-1,85,87,89,91,93,95,97,-1,-1,-1,-1,-1,-1,-1,-1,-1,-1,-1,-1,-1,-1,-1,-1,-1,-1,-1,-1,-1,-1,-1,-1,-1,-1,-1,-1,-1,-1,-1,-1,-1,-1,-1],"loss_changes":[1.3641115E4,2.876836E2,1.9418784E3,0E0,4.0441456E1,3.663239E2,1.5469678E2,4.7223785E1,1.378239E1,2.1392792E1,8.91821E1,4.1806152E1,1.0502925E2,3.6341698E1,1.6708954E1,7.3857975E0,0E0,2.708601E-1,0E0,9.295563E1,3.445777E1,2.621045E1,0E0,5.909944E1,1.17388E1,3.0187555E1,5.3022842E0,0E0,0E0,8.776978E0,0E0,0E0,0E0,4.275409E1,4.082544E1,2.6566116E1,1.1843822E1,2.1082642E1,0E0,3.0436941E1,8.530464E0,6.0042725E0,9.3286407E-1,2.4619785E1,3.7614276E0,0E0,0E0,7.1981697E0,0E0,3.6853172E1,4.073938E1,7.7239532E0,2.821561E0,6.7894917E0,1.0138107E1,0E0,0E0,2.2121826E1,4.4164627E1,1.5926319E1,5.033763E0,6.86977E0,5.5802333E-1,3.9632568E0,0E0,0E0,0E0,0E0,0E0,0E0,0E0,0E0,0E0,0E0,0E0,0E0,0E0,0E0,0E0,0E0,0E0,0E0,0E0,0E0,0E0,0E0,0E0,0E0,0E0,0E0,0E0,0E0,0E0,0E0,0E0,0E0,0E0,0E0,0E0],"parents":[2147483647,0,0,1,1,2,2,4,4,5,5,6,6,7,7,8,8,9,9,10,10,11,11,12,12,13,13,14,14,15,15,17,17,19,19,20,20,21,21,23,23,24,24,25,25,26,26,29,29,33,33,34,34,35,35,36,36,37,37,39,39,40,40,41,41,42,42,43,43,44,44,47,47,49,49,50,50,51,51,52,52,53,53,54,54,57,57,58,58,59,59,60,60,61,61,62,62,63,63],"right_children":[2,4,6,-1,8,10,12,14,16,18,20,22,24,26,28,30,-1,32,-1,34,36,38,-1,40,42,44,46,-1,-1,48,-1,-1,-1,50,52,54,56,58,-1,60,62,64,66,68,70,-1,-1,72,-1,74,76,78,80,82,84,-1,-1,86,88,90,92,94,96,98,-1,-1,-1,-1,-1,-1,-1,-1,-1,-1,-1,-1,-1,-1,-1,-1,-1,-1,-1,-1,-1,-1,-1,-1,-1,-1,-1,-1,-1,-1,-1,-1,-1,-1,-1],"split_conditions":[1E0,4.5E2,2.46E2,-1.7633294E-1,1.149E3,9E1,5E0,1E0,1E0,1.25E0,1E0,4.66E2,5.4E2,1E0,1E0,1E0,-5.360691E-2,1.08E0,-1.6216399E-1,4.76E0,1E0,1E0,1.6702737E-1,1E0,1E0,1E0,1E0,-1.7151079E-1,-0E0,1E0,-0E0,-0E0,1.8934522E-2,1E0,1E0,4.1E0,1E0,1E0,-2.3203958E-2,1E0,1E0,1E0,1E0,1E0,1E0,9.0358414E-2,-0E0,1E0,-0E0,1.55E2,1E0,1E0,1.47E2,3.89E0,1E0,-1.1083584E-1,-0E0,1E0,1E0,1E0,1E0,4.8E2,1E0,1E0,-0E0,-2.2328913E-2,2.3424147E-2,-1.2572317E-1,-0E0,-0E0,6.032892E-2,-0E0,1.10336386E-1,-3.60588E-2,5.805816E-2,-1.6458087E-1,1.4810094E-2,-1.7801365E-1,-0E0,4.993079E-2,-0E0,2.1897946E-2,-6.851557E-2,1.0269395E-1,-0E0,1.4754309E-1,-0E0,1.3294309E-2,1.2629776E-1,-1.17351815E-1,-0E0,-0E0,6.536441E-2,9.499056E-2,-0E0,-2.7501542E-2,-0E0,1.3614568E-1,-0E0],"split_indices":[3,5,5,0,5,5,3,34,26,3,37,5,5,71,76,51,0,3,0,3,74,27,0,37,55,51,75,0,0,75,0,0,0,34,29,3,76,34,0,51,16,71,19,37,14,0,0,14,0,5,19,36,5,3,49,0,0,20,37,71,14,5,36,29,0,0,0,0,0,0,0,0,0,0,0,0,0,0,0,0,0,0,0,0,0,0,0,0,0,0,0,0,0,0,0,0,0,0,0],"split_type":[0,0,0,0,0,0,0,0,0,0,0,0,0,0,0,0,0,0,0,0,0,0,0,0,0,0,0,0,0,0,0,0,0,0,0,0,0,0,0,0,0,0,0,0,0,0,0,0,0,0,0,0,0,0,0,0,0,0,0,0,0,0,0,0,0,0,0,0,0,0,0,0,0,0,0,0,0,0,0,0,0,0,0,0,0,0,0,0,0,0,0,0,0,0,0,0,0,0,0],"sum_hessian":[1.0856857E4,4.546368E3,6.3104893E3,4.251547E3,2.9482162E2,1.0350839E3,5.2754053E3,2.2902927E2,6.5792366E1,2.938667E2,7.4121716E2,4.7744717E3,5.009338E2,1.594706E2,6.955867E1,5.9397804E1,6.3945594E0,9.705509E0,2.8416116E2,4.331029E2,3.0811426E2,1.2354583E3,3.5390134E3,2.0462263E2,2.9631116E2,1.2550568E2,3.3964924E1,6.190359E1,7.655079E0,5.6680027E1,2.7177768E0,4.8929286E0,4.8125806E0,3.3148495E2,1.0161794E2,2.870854E2,2.1028883E1,1.2307974E3,4.6607795E0,1.0742807E2,9.719456E1,2.8261246E2,1.3698708E1,1.0101577E2,2.4489912E1,3.2020813E1,1.9441118E0,5.3950302E1,2.7297275E0,2.766458E2,5.4839134E1,8.6816826E1,1.4801118E1,6.7774086E1,2.193113E2,1.619768E1,4.831204E0,9.34665E2,2.9613248E2,8.2887726E1,2.4540346E1,8.834432E1,8.850238E0,2.7589474E2,6.717713E0,4.03545E0,9.663258E0,7.152317E1,2.94926E1,2.4415686E0,2.2048342E1,8.407335E0,4.5542965E1,8.002619E1,1.9661963E2,3.4389236E1,2.0449898E1,7.409645E1,1.2720376E1,1.1662302E1,3.138816E0,5.8604904E1,9.169183E0,2.0288702E2,1.6424276E1,9.201391E2,1.4525871E1,1.1002025E2,1.8611221E2,6.904048E1,1.3847241E1,3.0581224E0,2.1482224E1,8.670494E1,1.6393802E0,4.528358E0,4.32188E0,2.6992712E2,5.9676166E0],"tree_param":{"num_deleted":"0","num_feature":"78","num_nodes":"99","size_leaf_vector":"0"}},{"base_weights":[-0E0,-1.2451378E0,8.760721E-1,-1.3060428E0,-1.0785078E0,9.756586E-1,-4.24995E-2,-1.6604336E-1,-0E0,-1.6882753E-1,-9.134284E-1,9.900317E-1,-1.316154E-1,-4.1510388E-1,4.8963547E-1,-6.3134575E-1,-1.2148473E0,6.70879E-1,1.06721E0,-6.6509753E-1,3.4502098E-1,-3.213566E-1,6.963252E-1,-1.1003733E0,-4.1912785E-1,-0E0,-1.5925345E-1,8.169911E-1,2.692098E-1,1.1095437E0,5.495283E-1,-9.6936774E-1,1.5649578E-2,-1.4046634E-2,5.016134E-1,2.071945E-2,-7.6328975E-1,8.4828055E-1,-0E0,-2.1460684E-1,-1.6531798E-1,-5.0945127E-1,1.22177556E-1,-2.479168E-1,8.7198657E-1,-3.7839252E-1,4.937414E-1,8.771181E-2,1.1227659E0,6.9392353E-1,-8.478655E-1,-1.1045613E0,-0E0,5.111529E-1,-3.1061023E-1,-4.5918256E-2,-0E0,6.149646E-1,-0E0,1.8837926E-1,-0E0,-1.2512559E-1,-0E0,9.111408E-1,-0E0,-4.1392595E-2,7.621336E-2,-6.1496824E-2,2.694815E-3,-7.262206E-2,1.5724305E-2,7.972396E-2,-1.0160297E-2,-7.374904E-2,-0E0,1.1526623E-1,-0E0,-1.3368124E-1,1.1963937E-3,7.898524E-2,-2.3556923E-2,4.486977E-2,-3.607084E-2,1.429169E-1,-0E0,-0E0,9.727383E-2,-1.4565802E-1,-0E0,-1.5454252E-1,-0E0,-0E0,3.0748349E-2,8.370785E-2,-0E0,3.0983768E-2,-1.0574235E-1,8.894258E-2,-0E0,-0E0,4.613422E-2,1.1860603E-1,-0E0,5.8847427E-2,-2.6124194E-2],"categories":[],"categories_nodes":[],"categories_segments":[],"categories_sizes":[],"default_left":[0,0,0,0,0,0,0,0,0,0,0,0,0,0,0,0,0,0,0,0,0,0,0,0,0,0,0,0,0,0,0,0,0,0,0,0,0,0,0,0,0,0,0,0,0,0,0,0,0,0,0,0,0,0,0,0,0,0,0,0,0,0,0,0,0,0,0,0,0,0,0,0,0,0,0,0,0,0,0,0,0,0,0,0,0,0,0,0,0,0,0,0,0,0,0,0,0,0,0,0,0,0,0,0,0],"id":5,"left_children":[1,3,5,7,9,11,13,-1,-1,-1,15,17,-1,19,21,23,25,27,29,31,33,35,37,39,41,-1,-1,43,45,47,49,51,53,55,57,59,61,63,65,67,-1,69,71,73,75,77,79,81,83,85,87,89,91,93,95,-1,-1,97,-1,99,-1,-1,-1,101,-1,-1,103,-1,-1,-1,-1,-1,-1,-1,-1,-1,-1,-1,-1,-1,-1,-1,-1,-1,-1,-1,-1,-1,-1,-1,-1,-1,-1,-1,-1,-1,-1,-1,-1,-1,-1,-1,-1,-1,-1],"loss_changes":[1.1185838E4,1.4199707E1,5.5846484E2,2.048584E1,2.4397705E1,1.6469678E2,1.1759312E2,0E0,0E0,0E0,4.595276E1,1.1457617E2,0E0,7.230834E1,4.429375E1,2.7524902E1,2.1877502E1,5.4119385E1,7.748047E1,6.5499825E1,8.656543E0,1.2752512E1,2.2299522E1,7.4875336E0,1.9014328E1,0E0,0E0,5.2304688E1,4.8286983E1,4.364258E1,7.479683E1,3.3351517E1,1.6592327E1,1.8061017E0,8.012114E0,7.368118E-1,4.3884525E0,1.5032425E1,1.5779935E0,6.0892634E0,0E0,1.5556686E1,8.636963E0,6.991131E0,2.6602356E1,2.831115E1,2.6005222E1,7.844901E0,3.0605469E1,1.4988876E1,1.2873455E1,2.104216E1,1.3332773E0,6.9497013E0,1.9700346E1,0E0,0E0,7.0022964E0,0E0,1.8174303E0,0E0,0E0,0E0,6.213806E0,0E0,0E0,6.6115093E0,0E0,0E0,0E0,0E0,0E0,0E0,0E0,0E0,0E0,0E0,0E0,0E0,0E0,0E0,0E0,0E0,0E0,0E0,0E0,0E0,0E0,0E0,0E0,0E0,0E0,0E0,0E0,0E0,0E0,0E0,0E0,0E0,0E0,0E0,0E0,0E0,0E0,0E0],"parents":[2147483647,0,0,1,1,2,2,3,3,4,4,5,5,6,6,10,10,11,11,13,13,14,14,15,15,16,16,17,17,18,18,19,19,20,20,21,21,22,22,23,23,24,24,27,27,28,28,29,29,30,30,31,31,32,32,33,33,34,34,35,35,36,36,37,37,38,38,39,39,41,41,42,42,43,43,44,44,45,45,46,46,47,47,48,48,49,49,50,50,51,51,52,52,53,53,54,54,57,57,59,59,63,63,66,66],"right_children":[2,4,6,8,10,12,14,-1,-1,-1,16,18,-1,20,22,24,26,28,30,32,34,36,38,40,42,-1,-1,44,46,48,50,52,54,56,58,60,62,64,66,68,-1,70,72,74,76,78,80,82,84,86,88,90,92,94,96,-1,-1,98,-1,100,-1,-1,-1,102,-1,-1,104,-1,-1,-1,-1,-1,-1,-1,-1,-1,-1,-1,-1,-1,-1,-1,-1,-1,-1,-1,-1,-1,-1,-1,-1,-1,-1,-1,-1,-1,-1,-1,-1,-1,-1,-1,-1,-1,-1],"split_conditions":[1E0,8.4095245E14,5E0,1.25E0,3.05E0,4.83E0,1E0,-1.6604336E-1,-0E0,-1.6882753E-1,4.44E0,4.02E0,-1.316154E-1,1E0,4.27E0,1E0,8.649712E14,3.95E0,5E0,2.4238463E15,4.06E0,4.18E0,4.59E0,3.62E0,4.38E0,-0E0,-1.5925345E-1,1.25E0,3.72E0,2.62E0,1E0,1E0,1E0,1E0,4.78E0,5.994478E14,1E0,4.3442988E15,4.67E0,3.61E0,-1.6531798E-1,1E0,1.1316286E15,1E0,4.75E0,6.365012E14,4E0,1E0,1E0,1E0,1E0,1E0,1E0,1E0,2.7969614E15,-4.5918256E-2,-0E0,1E0,-0E0,1.4583103E14,-0E0,-1.2512559E-1,-0E0,1E0,-0E0,-4.1392595E-2,4.78E0,-6.1496824E-2,2.694815E-3,-7.262206E-2,1.5724305E-2,7.972396E-2,-1.0160297E-2,-7.374904E-2,-0E0,1.1526623E-1,-0E0,-1.3368124E-1,1.1963937E-3,7.898524E-2,-2.3556923E-2,4.486977E-2,-3.607084E-2,1.429169E-1,-0E0,-0E0,9.727383E-2,-1.4565802E-1,-0E0,-1.5454252E-1,-0E0,-0E0,3.0748349E-2,8.370785E-2,-0E0,3.0983768E-2,-1.0574235E-1,8.894258E-2,-0E0,-0E0,4.613422E-2,1.1860603E-1,-0E0,5.8847427E-2,-2.6124194E-2],"split_indices":[3,8,4,4,0,0,37,0,0,0,0,0,0,51,0,14,8,4,3,8,0,3,0,0,0,0,0,4,0,3,22,66,25,45,0,8,67,8,0,0,0,35,8,45,3,8,0,37,58,25,51,33,26,20,8,0,0,75,0,8,0,0,0,77,0,0,0,0,0,0,0,0,0,0,0,0,0,0,0,0,0,0,0,0,0,0,0,0,0,0,0,0,0,0,0,0,0,0,0,0,0,0,0,0,0],"split_type":[0,0,0,0,0,0,0,0,0,0,0,0,0,0,0,0,0,0,0,0,0,0,0,0,0,0,0,0,0,0,0,0,0,0,0,0,0,0,0,0,0,0,0,0,0,0,0,0,0,0,0,0,0,0,0,0,0,0,0,0,0,0,0,0,0,0,0,0,0,0,0,0,0,0,0,0,0,0,0,0,0,0,0,0,0,0,0,0,0,0,0,0,0,0,0,0,0,0,0,0,0,0,0,0,0],"sum_hessian":[1.02415E4,4.2261445E3,6.015355E3,3.0242598E3,1.2018845E3,5.4341836E3,5.811717E2,3.0157683E3,8.491569E0,4.3465482E2,7.6722974E2,5.4031943E3,3.0989248E1,3.5132666E2,2.2984503E2,4.2128958E2,3.4594016E2,1.0855149E3,4.317679E3,2.7272882E2,7.8597855E1,3.825029E1,1.9159474E2,1.1033607E2,3.109535E2,9.381165E0,3.36559E2,7.7629175E2,3.0922308E2,3.9697336E3,3.479458E2,1.9419827E2,7.853053E1,1.0878781E1,6.771908E1,1.5618286E1,2.2632002E1,1.5770389E2,3.3890854E1,3.059752E1,7.973854E1,2.7911154E2,3.1841955E1,2.9948992E1,7.463428E2,6.944301E1,2.3978009E2,5.8903385E1,3.91083E3,3.2371826E2,2.4227524E1,1.752241E2,1.8974167E1,3.895234E1,3.9578197E1,6.4627504E0,4.4160314E0,6.37929E1,3.9261756E0,1.3723925E1,1.8943617E0,1.5075304E1,7.5566983E0,1.5382706E2,3.8768387E0,5.527613E0,2.8363241E1,2.592262E1,4.6748996E0,2.6534683E2,1.3764722E1,1.5593245E1,1.624871E1,2.0080378E1,9.868613E0,7.172702E2,2.9072594E1,2.7986717E1,4.145629E1,2.1144579E2,2.8334301E1,4.6664955E1,1.2238429E1,3.8990017E3,1.1828556E1,3.5146618E1,2.8857166E2,1.9583967E1,4.643558E0,1.5653291E2,1.8691185E1,3.6510453E0,1.5323122E1,3.6304714E1,2.6476245E0,1.3937639E1,2.5640558E1,6.147003E1,2.3228676E0,1.699437E0,1.20244875E1,1.5244836E2,1.378695E0,2.1500422E1,6.8628197E0],"tree_param":{"num_deleted":"0","num_feature":"78","num_nodes":"105","size_leaf_vector":"0"}},{"base_weights":[-2.8071292E-3,-1.1705242E0,8.0457187E-1,-1.2757492E0,-3.444509E-1,-5.2051324E-1,1.0196782E0,-1.278694E0,-0E0,-6.0684353E-1,1.9052505E-1,-1.05979E0,-1.3906045E-1,1.076968E0,3.1468078E-1,-1.646309E-1,-8.8131696E-1,-3.915089E-2,-0E0,-9.138422E-1,-1.1482547E-1,-4.5983878E-1,4.603246E-1,-1.095304E0,-0E0,-7.6769215E-1,1.0925694E-1,7.1636856E-1,1.1400303E0,5.2722484E-1,-5.3854954E-1,-3.7374526E-1,-1.6406198E-1,-9.888095E-1,-0E0,6.787965E-2,-1.283117E-1,-7.221403E-1,-0E0,5.7521695E-1,-2.7205026E-2,-1.1699748E0,-1.3594736E-1,-9.262236E-1,-0E0,6.701495E-1,-3.902822E-1,7.7147067E-1,-6.229625E-1,1.155732E0,4.7332057E-1,5.7992E-2,6.9081E-1,-1.2267239E0,2.7367404E-1,-0E0,-1.2517083E-1,-1.0375392E0,-0E0,2.6478155E-2,-0E0,-3.9643684E-1,2.7831343E-1,-1.3610941E-1,-0E0,6.5078765E-1,-0E0,-1.6950975E-1,-4.4247857E-1,2.2948872E-1,-9.0225525E-2,-0E0,-1.0820464E0,-2.9106231E-2,1.20311104E-1,7.7442616E-1,-4.264787E-2,-6.608938E-1,5.201015E-1,8.1039727E-1,-3.5645634E-1,-1.3097164E-1,-0E0,-0E0,1.1571025E0,-2.1273495E-1,6.831306E-1,3.9904276E-1,-2.7257445E-1,-0E0,7.4027693E-1,-0E0,-1.9809078E-1,-4.0301927E-3,6.979271E-2,-3.6589358E-2,5.8308747E-2,-0E0,-1.411061E-1,-3.0347891E-2,-0E0,-0E0,-9.284638E-2,6.948869E-2,-1.7370794E-2,8.901588E-2,-0E0,-9.0576686E-2,-0E0,7.57059E-2,-0E0,-9.9367155E-3,3.475029E-2,-1.789123E-1,-4.8378024E-2,4.58604E-2,-0E0,-1.8833745E-2,1.08872004E-1,-1.10414736E-1,-0E0,-0E0,9.75089E-2,1.0686065E-1,-4.3454883E-3,-8.968389E-2,-0E0,1.31908E-1,1.5713018E-1,-1.2291789E-1,2.18997E-2,-0E0,1.00303575E-1,-2.8867407E-3,7.0555545E-2,-0E0,-7.091415E-2,-5.0718326E-2,1.5864724E-2,9.729937E-2,-0E0],"categories":[],"categories_nodes":[],"categories_segments":[],"categories_sizes":[],"default_left":[0,0,0,0,0,0,0,0,0,0,0,0,0,0,0,0,0,0,0,0,0,0,0,0,0,0,0,0,0,0,0,0,0,0,0,0,0,0,0,0,0,0,0,0,0,0,0,0,0,0,0,0,0,0,0,0,0,0,0,0,0,0,0,0,0,0,0,0,0,0,0,0,0,0,0,0,0,0,0,0,0,0,0,0,0,0,0,0,0,0,0,0,0,0,0,0,0,0,0,0,0,0,0,0,0,0,0,0,0,0,0,0,0,0,0,0,0,0,0,0,0,0,0,0,0,0,0,0,0,0,0,0,0,0,0,0,0,0,0,0,0],"id":6,"left_children":[1,3,5,7,9,11,13,15,17,19,21,23,25,27,29,-1,31,-1,-1,33,35,37,39,41,-1,43,45,47,49,51,53,55,-1,57,59,61,-1,63,-1,65,-1,67,69,71,73,75,77,79,81,83,85,87,89,91,93,95,-1,97,99,-1,-1,101,103,-1,-1,105,-1,-1,107,109,-1,111,113,-1,115,117,-1,119,121,123,125,-1,-1,-1,127,129,131,133,135,137,139,-1,-1,-1,-1,-1,-1,-1,-1,-1,-1,-1,-1,-1,-1,-1,-1,-1,-1,-1,-1,-1,-1,-1,-1,-1,-1,-1,-1,-1,-1,-1,-1,-1,-1,-1,-1,-1,-1,-1,-1,-1,-1,-1,-1,-1,-1,-1,-1,-1,-1],"loss_changes":[9.176483E3,3.3032617E2,1.6463687E3,5.5976562E0,6.979027E1,1.5476689E2,1.8681348E2,3.487793E0,1.480209E0,4.0447487E1,2.7860199E1,1.2458923E1,8.1728966E1,8.353174E1,7.3218155E1,0E0,2.8526154E1,0E0,0E0,2.0458801E1,3.1299131E1,9.0405655E0,1.2848875E1,1.1136536E1,0E0,1.7849098E1,1.01212036E2,5.7647675E1,2.3769043E1,1.8888054E1,5.157915E1,2.2021812E1,0E0,3.8818817E0,5.3608996E-1,1.1484768E1,0E0,1.336651E1,0E0,9.072178E0,0E0,1.6295807E1,1.3006752E1,2.1345917E1,1.1205778E0,2.3489143E1,4.8118706E1,3.6289978E1,1.3335511E1,1.0072266E1,2.0896736E1,1.3537721E1,9.892349E0,3.018608E1,7.115752E0,1.1275064E1,0E0,7.3137817E0,8.537957E-1,0E0,0E0,6.3869495E0,1.466428E1,0E0,0E0,6.572178E0,0E0,0E0,1.2047805E1,5.0186443E0,0E0,1.2958663E0,7.0756836E0,0E0,2.6748164E0,1.9449821E1,0E0,2.7365532E1,1.0099552E1,2.552713E1,5.4717517E0,0E0,0E0,0E0,9.029785E0,1.4197719E1,1.090395E1,8.610285E0,7.8064413E0,2.0831842E0,7.9129868E0,0E0,0E0,0E0,0E0,0E0,0E0,0E0,0E0,0E0,0E0,0E0,0E0,0E0,0E0,0E0,0E0,0E0,0E0,0E0,0E0,0E0,0E0,0E0,0E0,0E0,0E0,0E0,0E0,0E0,0E0,0E0,0E0,0E0,0E0,0E0,0E0,0E0,0E0,0E0,0E0,0E0,0E0,0E0,0E0,0E0,0E0,0E0,0E0,0E0,0E0],"parents":[2147483647,0,0,1,1,2,2,3,3,4,4,5,5,6,6,7,7,8,8,9,9,10,10,11,11,12,12,13,13,14,14,16,16,19,19,20,20,21,21,22,22,23,23,25,25,26,26,27,27,28,28,29,29,30,30,31,31,33,33,34,34,35,35,37,37,39,39,41,41,42,42,43,43,44,44,45,45,46,46,47,47,48,48,49,49,50,50,51,51,52,52,53,53,54,54,55,55,57,57,58,58,61,61,62,62,65,65,68,68,69,69,71,71,72,72,74,74,75,75,77,77,78,78,79,79,80,80,84,84,85,85,86,86,87,87,88,88,89,89,90,90],"right_children":[2,4,6,8,10,12,14,16,18,20,22,24,26,28,30,-1,32,-1,-1,34,36,38,40,42,-1,44,46,48,50,52,54,56,-1,58,60,62,-1,64,-1,66,-1,68,70,72,74,76,78,80,82,84,86,88,90,92,94,96,-1,98,100,-1,-1,102,104,-1,-1,106,-1,-1,108,110,-1,112,114,-1,116,118,-1,120,122,124,126,-1,-1,-1,128,130,132,134,136,138,140,-1,-1,-1,-1,-1,-1,-1,-1,-1,-1,-1,-1,-1,-1,-1,-1,-1,-1,-1,-1,-1,-1,-1,-1,-1,-1,-1,-1,-1,-1,-1,-1,-1,-1,-1,-1,-1,-1,-1,-1,-1,-1,-1,-1,-1,-1,-1,-1,-1,-1],"split_conditions":[1.25E0,4.1E1,2.7E1,1E0,9.1E1,1.4E1,5E0,3E1,1E0,4.617686E14,1.5441894E14,1.2456731E16,4.03E0,4.1E1,1E0,-1.646309E-1,1E0,-3.915089E-2,-0E0,1E0,1E0,2.4E2,1E0,1E0,-0E0,1E0,4.5E0,1E0,4.96E0,4.3E1,1.02E2,3.6E1,-1.6406198E-1,1E0,4.6E1,1E0,-1.283117E-1,1E0,-0E0,1E0,-2.7205026E-2,1E0,1E0,1.83E0,2E1,1E0,1E0,1E0,1E0,7.5E-1,1.72061E14,3.2E1,4.26E0,6.0665E13,2.9465462E14,1E0,-1.2517083E-1,4.3E1,3.6619133E14,2.6478155E-2,-0E0,4.4E1,1E0,-1.3610941E-1,-0E0,1E0,-0E0,-1.6950975E-1,1E0,4.1E0,-9.0225525E-2,1.3222485E15,1E0,-2.9106231E-2,3.53E0,3.35E0,-4.264787E-2,2.2189354E15,1.8E1,1E0,1E0,-1.3097164E-1,-0E0,-0E0,8.6E1,1E0,1E0,1.2316338E14,4.03E0,1.25E2,1E0,-0E0,-1.9809078E-1,-4.0301927E-3,6.979271E-2,-3.6589358E-2,5.8308747E-2,-0E0,-1.411061E-1,-3.0347891E-2,-0E0,-0E0,-9.284638E-2,6.948869E-2,-1.7370794E-2,8.901588E-2,-0E0,-9.0576686E-2,-0E0,7.57059E-2,-0E0,-9.9367155E-3,3.475029E-2,-1.789123E-1,-4.8378024E-2,4.58604E-2,-0E0,-1.8833745E-2,1.08872004E-1,-1.10414736E-1,-0E0,-0E0,9.75089E-2,1.0686065E-1,-4.3454883E-3,-8.968389E-2,-0E0,1.31908E-1,1.5713018E-1,-1.2291789E-1,2.18997E-2,-0E0,1.00303575E-1,-2.8867407E-3,7.0555545E-2,-0E0,-7.091415E-2,-5.0718326E-2,1.5864724E-2,9.729937E-2,-0E0],"split_indices":[1,6,6,1,6,6,4,6,57,7,7,7,1,6,42,0,39,0,0,69,42,6,38,23,0,74,4,38,1,6,6,6,0,30,6,15,0,31,0,75,0,56,11,4,6,42,33,43,74,4,7,6,1,7,7,19,0,6,7,0,0,6,34,0,0,43,0,0,74,4,0,7,67,0,4,4,0,7,6,44,12,0,0,0,6,74,15,7,1,6,21,0,0,0,0,0,0,0,0,0,0,0,0,0,0,0,0,0,0,0,0,0,0,0,0,0,0,0,0,0,0,0,0,0,0,0,0,0,0,0,0,0,0,0,0,0,0,0,0,0,0],"split_type":[0,0,0,0,0,0,0,0,0,0,0,0,0,0,0,0,0,0,0,0,0,0,0,0,0,0,0,0,0,0,0,0,0,0,0,0,0,0,0,0,0,0,0,0,0,0,0,0,0,0,0,0,0,0,0,0,0,0,0,0,0,0,0,0,0,0,0,0,0,0,0,0,0,0,0,0,0,0,0,0,0,0,0,0,0,0,0,0,0,0,0,0,0,0,0,0,0,0,0,0,0,0,0,0,0,0,0,0,0,0,0,0,0,0,0,0,0,0,0,0,0,0,0,0,0,0,0,0,0,0,0,0,0,0,0,0,0,0,0,0,0],"sum_hessian":[9.715693E3,3.9741511E3,5.741542E3,3.5132776E3,4.608736E2,7.953989E2,4.946143E3,3.500504E3,1.2773568E1,3.182612E2,1.426124E2,3.1573117E2,4.7966772E2,4.56069E3,3.8545306E2,3.2934973E3,2.0700655E2,8.18707E0,4.5864983E0,1.824279E2,1.358333E2,3.1891415E1,1.1072098E2,3.0550702E2,1.0224147E1,1.4031696E2,3.3935077E2,7.105938E2,3.8500964E3,3.1808466E2,6.73684E1,1.075911E2,9.9415436E1,1.7567181E2,6.7560844E0,1.1132183E2,2.451146E1,2.5917591E1,5.973823E0,1.0534116E2,5.3798103E0,2.744687E2,3.1038315E1,1.14910164E2,2.5406796E1,1.6598122E2,1.7336957E2,6.9104504E2,1.9548756E1,3.7449219E3,1.0517449E2,9.7020195E1,2.2106447E2,3.9607162E1,2.7761234E1,7.589539E1,3.1695707E1,1.6249286E2,1.3178961E1,4.9594135E0,1.7966712E0,2.122853E1,9.00933E1,1.9285933E1,6.631658E0,1.02116905E2,3.2242603E0,2.0938173E2,6.5086975E1,1.3464309E1,1.7574007E1,1.4436829E1,1.0047333E2,6.811171E0,1.8595625E1,1.589001E2,7.0811048E0,1.4174422E2,3.1625357E1,6.7661664E2,1.4428359E1,1.492227E1,4.6264863E0,1.3604476E0,3.7435613E3,1.5966955E1,8.9207535E1,5.8532787E1,3.8487404E1,1.1450676E1,2.096138E2,5.6833878E0,3.3923775E1,3.0003464E0,2.4760887E1,5.4190884E1,2.1704512E1,1.652083E1,1.4597203E2,7.566442E0,5.6125183E0,8.29537E0,1.2933162E1,6.446681E1,2.5626486E1,9.990382E1,2.2130885E0,4.39992E1,2.1087776E1,9.806971E0,3.6573386E0,5.5797825E0,8.857047E0,5.5722126E1,4.4751205E1,1.5964443E1,2.6311817E0,5.2293663E0,1.5367075E2,1.14456436E2,2.728778E1,4.1018696E0,2.7523487E1,6.600234E2,1.659332E1,9.120024E0,5.3083353E0,1.6414073E3,2.102154E3,8.417489E0,7.549466E0,7.2450924E0,8.196244E1,4.2846265E0,5.424816E1,1.0017832E1,2.8469572E1,4.2660255E0,7.1846504E0,2.0769817E2,1.9156328E0],"tree_param":{"num_deleted":"0","num_feature":"78","num_nodes":"141","size_leaf_vector":"0"}},{"base_weights":[-0E0,-1.1205736E0,7.4680144E-1,-1.2473345E0,-5.0065464E-1,-4.983752E-1,9.526098E-1,-1.5853016E-1,-0E0,-6.8717784E-1,1.5069118E-1,-9.5932496E-1,1.0614044E-2,6.4050573E-1,1.0943468E0,-9.3970096E-1,-2.0576872E-1,-2.5975138E-1,4.621213E-1,-1.1385767E0,3.69469E-1,-1.6778295E-1,7.2877437E-1,8.7218404E-1,1.14981E-1,1.1286945E0,4.9051487E-1,-9.7397643E-1,-0E0,-0E0,-1.3353285E-1,-6.799049E-1,4.7585793E-2,5.950438E-1,-1.8929606E-2,-1.2005045E0,-0E0,-5.1604204E-2,8.5598606E-1,-4.3437803E-1,4.6901095E-1,-3.52548E-2,9.4310766E-1,4.5771986E-1,1.0443419E0,-1.0928243E0,3.3467397E-1,1.1313355E0,-0E0,6.5773255E-1,-0E0,-0E0,-1.0152408E0,2.2785233E-1,-5.148228E-1,-1.2806219E-1,-0E0,-0E0,5.1776025E-2,6.8796563E-1,-0E0,-1.2398096E0,-0E0,-2.0642972E-2,4.0215682E-2,1.0420595E0,-0E0,-6.894179E-2,-1.1464479E0,6.6442907E-1,-3.0546017E-2,-0E0,1.0099568E0,-1.7763384E-1,6.51262E-1,1.084048E0,-0E0,-1.2419443E0,-0E0,4.8952594E-1,-5.351216E-1,-0E0,1.1328343E0,-0E0,7.7061456E-1,-1.0433678E-1,2.0119482E-1,-4.8301693E-2,3.996047E-2,-1.4686993E-1,-6.821924E-2,-0E0,1.0609021E-1,-1.23043455E-1,-0E0,-4.166945E-2,-0E0,-0E0,1.0799632E-1,-0E0,-1.6297215E-1,-0E0,1.4283596E-1,-1.032503E-1,1.4591978E-2,-0E0,-1.6733511E-1,-0E0,1.0999471E-1,1.3569053E-1,-0E0,-7.6616615E-2,2.8454635E-2,-0E0,1.1030104E-1,1.3835058E-1,-0E0,-3.0688485E-2,5.3726222E-2,-1.768067E-1,-0E0,3.1934682E-2,1.1372211E-1,-1.2980229E-1,-0E0,1.4550933E-1,7.435716E-2,-3.515028E-2,-0E0,1.047836E-1,-0E0,-1.5449676E-2,6.277803E-2],"categories":[],"categories_nodes":[],"categories_segments":[],"categories_sizes":[],"default_left":[0,0,0,0,0,0,0,0,0,0,0,0,0,0,0,0,0,0,0,0,0,0,0,0,0,0,0,0,0,0,0,0,0,0,0,0,0,0,0,0,0,0,0,0,0,0,0,0,0,0,0,0,0,0,0,0,0,0,0,0,0,0,0,0,0,0,0,0,0,0,0,0,0,0,0,0,0,0,0,0,0,0,0,0,0,0,0,0,0,0,0,0,0,0,0,0,0,0,0,0,0,0,0,0,0,0,0,0,0,0,0,0,0,0,0,0,0,0,0,0,0,0,0,0,0,0,0,0,0,0,0,0,0],"id":7,"left_children":[1,3,5,7,9,11,13,-1,-1,15,17,19,21,23,25,27,29,31,33,35,37,39,41,43,45,47,49,51,-1,53,-1,55,57,59,-1,61,63,-1,65,67,69,-1,71,73,75,77,79,81,-1,83,85,87,89,91,93,-1,-1,95,-1,97,-1,99,-1,-1,-1,101,-1,103,105,107,-1,-1,109,111,113,115,117,119,-1,121,123,-1,125,127,129,-1,131,-1,-1,-1,-1,-1,-1,-1,-1,-1,-1,-1,-1,-1,-1,-1,-1,-1,-1,-1,-1,-1,-1,-1,-1,-1,-1,-1,-1,-1,-1,-1,-1,-1,-1,-1,-1,-1,-1,-1,-1,-1,-1,-1,-1,-1,-1],"loss_changes":[7.618949E3,2.6805908E2,1.4067573E3,1.5313965E1,8.2762405E1,1.8906465E2,1.8914355E2,0E0,0E0,5.155977E1,2.0265373E1,1.0772351E2,5.228109E1,1.7438074E2,4.9814453E1,1.375412E1,3.8710205E1,1.2118224E1,1.1629145E1,3.0329498E1,2.4783594E1,5.0699387E1,2.4995686E1,5.840045E1,1.2362117E2,1.4816162E1,2.1013435E1,9.556366E0,0E0,1.8347078E1,0E0,1.2225125E1,2.7204916E0,8.903671E0,0E0,1.8449036E1,2.1293533E0,0E0,1.0826811E1,4.668919E1,1.5682814E1,0E0,8.047218E0,4.4923454E1,2.2909058E1,1.5496704E1,5.751248E1,8.739258E0,0E0,1.5184204E1,1.3454341E1,3.8420281E0,2.7195435E0,1.9403885E1,1.4942547E1,0E0,0E0,1.4833552E0,0E0,8.960133E0,0E0,1.4194458E1,0E0,0E0,0E0,5.2994537E0,0E0,2.7925764E1,2.0787674E1,1.5396385E1,0E0,0E0,7.594635E0,1.6498991E1,3.49793E1,9.530884E0,5.8275795E0,1.3292999E1,0E0,2.4715187E1,2.052534E1,0E0,7.2043457E0,8.300881E-1,7.772812E0,0E0,6.7536077E0,0E0,0E0,0E0,0E0,0E0,0E0,0E0,0E0,0E0,0E0,0E0,0E0,0E0,0E0,0E0,0E0,0E0,0E0,0E0,0E0,0E0,0E0,0E0,0E0,0E0,0E0,0E0,0E0,0E0,0E0,0E0,0E0,0E0,0E0,0E0,0E0,0E0,0E0,0E0,0E0,0E0,0E0,0E0,0E0,0E0,0E0],"parents":[2147483647,0,0,1,1,2,2,3,3,4,4,5,5,6,6,9,9,10,10,11,11,12,12,13,13,14,14,15,15,16,16,17,17,18,18,19,19,20,20,21,21,22,22,23,23,24,24,25,25,26,26,27,27,29,29,31,31,32,32,33,33,35,35,36,36,38,38,39,39,40,40,42,42,43,43,44,44,45,45,46,46,47,47,49,49,50,50,51,51,52,52,53,53,54,54,57,57,59,59,61,61,65,65,67,67,68,68,69,69,72,72,73,73,74,74,75,75,76,76,77,77,79,79,80,80,82,82,83,83,84,84,86,86],"right_children":[2,4,6,8,10,12,14,-1,-1,16,18,20,22,24,26,28,30,32,34,36,38,40,42,44,46,48,50,52,-1,54,-1,56,58,60,-1,62,64,-1,66,68,70,-1,72,74,76,78,80,82,-1,84,86,88,90,92,94,-1,-1,96,-1,98,-1,100,-1,-1,-1,102,-1,104,106,108,-1,-1,110,112,114,116,118,120,-1,122,124,-1,126,128,130,-1,132,-1,-1,-1,-1,-1,-1,-1,-1,-1,-1,-1,-1,-1,-1,-1,-1,-1,-1,-1,-1,-1,-1,-1,-1,-1,-1,-1,-1,-1,-1,-1,-1,-1,-1,-1,-1,-1,-1,-1,-1,-1,-1,-1,-1,-1,-1],"split_conditions":[7.5E-1,3E1,2.7E1,2.56E0,9.1E1,1.41E2,4.66E2,-1.5853016E-1,-0E0,8.4095245E14,2.9633077E14,1E0,1E0,4.47E0,5E0,1E0,1E0,1.282E3,1E0,2.5E1,8E0,2.2189354E15,4.05E0,4.13E0,4.15E0,4.83E0,1E0,1.21E2,-0E0,1.0690798E15,-1.3353285E-1,1E0,1E0,4.39E0,-1.8929606E-2,1E0,4.84E0,-5.1604204E-2,4.74E0,5.3984367E14,4.91E0,-3.52548E-2,9.615775E13,3.8E1,4.98E0,1E0,1E0,2.3304667E13,-0E0,4.51E0,7.9E1,1.19E2,4.5E2,3.2502546E15,1.969675E15,-1.2806219E-1,-0E0,1E0,5.1776025E-2,3.61E0,-0E0,1.3516212E13,-0E0,-2.0642972E-2,4.0215682E-2,4.25E0,-0E0,1.59184E14,1.25E0,4.26E0,-3.0546017E-2,-0E0,3.138579E15,4.05E0,4.6257365E14,4.7E0,3.7E2,1E0,-0E0,2.3543556E15,4.91E0,-0E0,4.95E0,4.51E0,1E0,-1.0433678E-1,4.8091675E14,-4.8301693E-2,3.996047E-2,-1.4686993E-1,-6.821924E-2,-0E0,1.0609021E-1,-1.23043455E-1,-0E0,-4.166945E-2,-0E0,-0E0,1.0799632E-1,-0E0,-1.6297215E-1,-0E0,1.4283596E-1,-1.032503E-1,1.4591978E-2,-0E0,-1.6733511E-1,-0E0,1.0999471E-1,1.3569053E-1,-0E0,-7.6616615E-2,2.8454635E-2,-0E0,1.1030104E-1,1.3835058E-1,-0E0,-3.0688485E-2,5.3726222E-2,-1.768067E-1,-0E0,3.1934682E-2,1.1372211E-1,-1.2980229E-1,-0E0,1.4550933E-1,7.435716E-2,-3.515028E-2,-0E0,1.047836E-1,-0E0,-1.5449676E-2,6.277803E-2],"split_indices":[4,6,6,3,6,5,5,0,0,8,8,13,33,4,4,10,42,5,72,6,6,7,0,0,0,0,42,5,0,7,0,31,46,0,0,54,3,0,3,7,3,0,8,6,3,50,42,7,0,2,6,5,5,8,7,0,0,37,0,0,0,8,0,0,0,0,0,7,4,1,0,0,7,0,8,0,5,66,0,8,1,0,2,1,9,0,8,0,0,0,0,0,0,0,0,0,0,0,0,0,0,0,0,0,0,0,0,0,0,0,0,0,0,0,0,0,0,0,0,0,0,0,0,0,0,0,0,0,0,0,0,0,0],"split_type":[0,0,0,0,0,0,0,0,0,0,0,0,0,0,0,0,0,0,0,0,0,0,0,0,0,0,0,0,0,0,0,0,0,0,0,0,0,0,0,0,0,0,0,0,0,0,0,0,0,0,0,0,0,0,0,0,0,0,0,0,0,0,0,0,0,0,0,0,0,0,0,0,0,0,0,0,0,0,0,0,0,0,0,0,0,0,0,0,0,0,0,0,0,0,0,0,0,0,0,0,0,0,0,0,0,0,0,0,0,0,0,0,0,0,0,0,0,0,0,0,0,0,0,0,0,0,0,0,0,0,0,0,0],"sum_hessian":[9.089056E3,3.634242E3,5.4548135E3,3.000756E3,6.3348584E2,7.6690283E2,4.6879106E3,2.992137E3,8.619002E0,5.013877E2,1.3209818E2,4.0702707E2,3.5987576E2,1.4937274E3,3.194183E3,3.137599E2,1.8762782E2,4.6790028E1,8.530814E1,3.6470236E2,4.2324707E1,2.8412497E2,7.575078E1,1.02312494E3,4.706025E2,3.0041206E3,1.900624E2,3.060583E2,7.7015867E0,1.5265953E2,3.496829E1,2.666072E1,2.0129309E1,8.0636444E1,4.6716967E0,3.4835574E2,1.6346601E1,1.0631563E1,3.1693144E1,2.1048636E2,7.3638626E1,6.572498E0,6.917828E1,3.2131183E2,7.018131E2,6.2528095E1,4.0807443E2,3.0016528E3,2.4678028E0,1.5103264E2,3.902976E1,1.568484E1,2.9037344E2,1.1464227E2,3.8017258E1,2.0026722E1,6.633998E0,1.0781334E1,9.347974E0,7.729383E1,3.3426187E0,3.3816403E2,1.0191729E1,6.0468636E0,1.0299738E1,2.8976044E1,2.7170987E0,1.5158736E2,5.8899E1,6.666438E1,6.9742494E0,1.9019438E0,6.727634E1,6.582582E1,2.5548601E2,6.703115E2,3.1501616E1,5.680953E1,5.7185645E0,3.5667346E2,5.140095E1,1.1475061E0,3.0005054E3,1.7423992E1,1.3360864E2,1.0378042E1,2.8651718E1,1.0706009E1,4.9788313E0,2.0254521E2,8.782824E1,8.524949E1,2.9392784E1,2.1270056E1,1.67472E1,6.398676E0,4.3826585E0,1.7153881E1,6.0139946E1,1.5904471E1,3.2225955E2,1.1111058E0,2.7864939E1,3.3368298E1,1.1821906E2,4.398459E0,5.4500538E1,1.0213179E1,5.6451202E1,6.56489E1,1.6274326E0,3.947545E1,2.6350372E1,6.955762E1,1.8592839E2,6.685898E2,1.7217321E0,1.3051426E1,1.845019E1,5.0306858E1,6.5026727E0,2.4492068E2,1.1175279E2,2.8262615E1,2.3138336E1,2.8956838E3,1.0482148E2,3.469441E0,1.3954552E1,1.2641727E2,7.191379E0,3.1603127E0,2.5491405E1],"tree_param":{"num_deleted":"0","num_feature":"78","num_nodes":"133","size_leaf_vector":"0"}},{"base_weights":[-4.171893E-3,-1.0584606E0,6.959047E-1,-1.082359E0,-4.476892E-1,7.914951E-1,-5.3160693E-2,-1.3795611E-1,-0E0,5.5102758E-2,-6.551494E-1,8.2857215E-1,-1.0465576E-1,-2.692229E-1,2.907469E-1,-0E0,-4.6893746E-2,-2.0212308E-2,4.2539963E-1,-9.31848E-2,-0E0,8.6876965E-1,2.6328862E-1,-5.665265E-1,3.9156663E-1,-3.7692463E-1,5.0595284E-2,-3.106569E-1,4.731229E-1,1.4403176E-1,-0E0,-4.89841E-2,-0E0,6.9399275E-2,-0E0,3.7394878E-1,9.11627E-1,-1.0816071E-1,4.5626587E-1,-9.732813E-1,-0E0,-0E0,8.597772E-2,-8.063747E-3,-7.6944536E-1,-4.203703E-1,3.1964463E-1,-5.611725E-1,-0E0,-0E0,6.8395764E-1,3.0855833E-2,-0E0,4.540509E-1,-9.984928E-2,9.257178E-1,1.384096E-1,1.7498554E-1,-8.793175E-1,5.145526E-1,-0E0,-1.1723217E0,-0E0,-3.2196622E-2,2.3711933E-1,3.8393527E-1,-7.820558E-2,-6.960263E-1,6.6413626E-2,1.7843455E-2,-9.050244E-1,-6.933758E-2,-0E0,-0E0,4.0953138E-1,-0E0,-9.184129E-1,-5.9739137E-1,5.159091E-1,7.3650885E-1,-0E0,-9.183911E-3,7.32983E-2,1.1797046E-1,-4.310928E-3,-1.9535746E-2,7.545971E-2,-1.8448427E-2,7.341865E-2,-1.5207413E-1,-0E0,7.054876E-2,-0E0,-7.466888E-3,1.7935906E-2,-1.7673892E-1,-0E0,5.0452765E-2,-0E0,6.4970165E-2,-0E0,-1.1336912E-1,-0E0,3.0595368E-2,-1.8401273E-2,-1.3435355E-1,-0E0,-0E0,6.334562E-2,-1.4520368E-1,-0E0,-0E0,-1.2837356E-1,-0E0,8.0453195E-2,1.0005478E-1,-0E0],"categories":[],"categories_nodes":[],"categories_segments":[],"categories_sizes":[],"default_left":[0,0,0,0,0,0,0,0,0,0,0,0,0,0,0,0,0,0,0,0,0,0,0,0,0,0,0,0,0,0,0,0,0,0,0,0,0,0,0,0,0,0,0,0,0,0,0,0,0,0,0,0,0,0,0,0,0,0,0,0,0,0,0,0,0,0,0,0,0,0,0,0,0,0,0,0,0,0,0,0,0,0,0,0,0,0,0,0,0,0,0,0,0,0,0,0,0,0,0,0,0,0,0,0,0,0,0,0,0,0,0,0,0,0,0,0,0],"id":8,"left_children":[1,3,5,7,9,11,13,-1,15,17,19,21,23,25,27,29,-1,31,33,-1,-1,35,37,39,41,43,45,47,49,51,-1,-1,-1,-1,-1,53,55,57,59,61,63,65,-1,67,69,71,73,75,-1,77,79,-1,-1,81,-1,83,85,87,89,91,93,95,-1,-1,97,99,-1,101,103,-1,105,-1,-1,-1,107,-1,109,111,113,115,-1,-1,-1,-1,-1,-1,-1,-1,-1,-1,-1,-1,-1,-1,-1,-1,-1,-1,-1,-1,-1,-1,-1,-1,-1,-1,-1,-1,-1,-1,-1,-1,-1,-1,-1,-1,-1],"loss_changes":[6.2435776E3,3.392456E1,3.695464E2,1.5554443E1,2.0752817E1,1.5615552E2,4.2927174E1,0E0,1.894713E0,4.3210683E0,1.0563454E1,8.822217E1,4.3649776E1,1.5378286E1,2.5420254E1,4.8013583E-1,0E0,2.6972342E0,2.4432182E0,0E0,0E0,7.317798E1,2.5386839E1,2.9346458E1,4.4747295E0,3.6657238E1,1.0507822E1,7.161354E0,1.7418324E1,8.272275E-1,0E0,0E0,0E0,0E0,0E0,3.2482407E1,3.1097168E1,2.813195E1,5.357998E0,1.1133656E1,3.0196848E0,1.24718075E1,0E0,1.3905997E1,2.322567E1,6.46189E-1,3.1518211E0,1.2791546E1,0E0,2.1050652E1,5.407074E0,0E0,0E0,2.6306374E1,0E0,2.5724121E1,1.5402698E1,1.3176802E1,1.5325769E1,6.072155E0,4.2543215E-1,1.554007E1,0E0,0E0,2.5139875E0,4.4631124E0,0E0,3.2768784E0,6.545195E0,0E0,1.4214729E1,0E0,0E0,0E0,4.3368893E0,0E0,7.250601E0,1.2018397E1,4.381714E0,5.278572E0,0E0,0E0,0E0,0E0,0E0,0E0,0E0,0E0,0E0,0E0,0E0,0E0,0E0,0E0,0E0,0E0,0E0,0E0,0E0,0E0,0E0,0E0,0E0,0E0,0E0,0E0,0E0,0E0,0E0,0E0,0E0,0E0,0E0,0E0,0E0,0E0,0E0],"parents":[2147483647,0,0,1,1,2,2,3,3,4,4,5,5,6,6,8,8,9,9,10,10,11,11,12,12,13,13,14,14,15,15,17,17,18,18,21,21,22,22,23,23,24,24,25,25,26,26,27,27,28,28,29,29,35,35,36,36,37,37,38,38,39,39,40,40,41,41,43,43,44,44,45,45,46,46,47,47,49,49,50,50,53,53,55,55,56,56,57,57,58,58,59,59,60,60,61,61,64,64,65,65,67,67,68,68,70,70,74,74,76,76,77,77,78,78,79,79],"right_children":[2,4,6,8,10,12,14,-1,16,18,20,22,24,26,28,30,-1,32,34,-1,-1,36,38,40,42,44,46,48,50,52,-1,-1,-1,-1,-1,54,56,58,60,62,64,66,-1,68,70,72,74,76,-1,78,80,-1,-1,82,-1,84,86,88,90,92,94,96,-1,-1,98,100,-1,102,104,-1,106,-1,-1,-1,108,-1,110,112,114,116,-1,-1,-1,-1,-1,-1,-1,-1,-1,-1,-1,-1,-1,-1,-1,-1,-1,-1,-1,-1,-1,-1,-1,-1,-1,-1,-1,-1,-1,-1,-1,-1,-1,-1,-1,-1,-1],"split_conditions":[1.75E0,1E0,4.95E0,2.35E0,1E0,5E0,1E0,-1.3795611E-1,3.51E0,1E0,2.56E0,5E0,4.63E0,1E0,4.63E0,1.17E0,-4.6893746E-2,1E0,1E0,-9.31848E-2,-0E0,3.03E0,4.02E0,1E0,1E0,4.89E0,4.68E0,1E0,1E0,1E0,-0E0,-4.89841E-2,-0E0,6.9399275E-2,-0E0,3.91E0,5E0,3.91E0,1E0,1E0,4.26E0,1E0,8.597772E-2,3.77E0,3.51E0,4.89E0,1E0,3.05E0,-0E0,1E0,1E0,3.0855833E-2,-0E0,2.17E0,-9.984928E-2,1E0,4.51E0,1E0,1E0,1E0,1E0,1E0,-0E0,-3.2196622E-2,4.76E0,1E0,-7.820558E-2,4.89E0,4.94E0,1.7843455E-2,1E0,-6.933758E-2,-0E0,-0E0,4.51E0,-0E0,1E0,4.92E0,4.51E0,1E0,-0E0,-9.183911E-3,7.32983E-2,1.1797046E-1,-4.310928E-3,-1.9535746E-2,7.545971E-2,-1.8448427E-2,7.341865E-2,-1.5207413E-1,-0E0,7.054876E-2,-0E0,-7.466888E-3,1.7935906E-2,-1.7673892E-1,-0E0,5.0452765E-2,-0E0,6.4970165E-2,-0E0,-1.1336912E-1,-0E0,3.0595368E-2,-1.8401273E-2,-1.3435355E-1,-0E0,-0E0,6.334562E-2,-1.4520368E-1,-0E0,-0E0,-1.2837356E-1,-0E0,8.0453195E-2,1.0005478E-1,-0E0],"split_indices":[2,29,2,3,11,4,48,0,3,37,3,3,2,51,1,2,0,10,28,0,0,1,2,19,51,3,1,27,37,19,0,0,0,0,0,4,1,2,22,28,3,34,0,3,1,4,11,4,0,26,75,0,0,1,0,58,4,48,71,71,9,71,0,0,1,22,0,1,1,0,28,0,0,0,4,0,49,1,3,38,0,0,0,0,0,0,0,0,0,0,0,0,0,0,0,0,0,0,0,0,0,0,0,0,0,0,0,0,0,0,0,0,0,0,0,0,0],"split_type":[0,0,0,0,0,0,0,0,0,0,0,0,0,0,0,0,0,0,0,0,0,0,0,0,0,0,0,0,0,0,0,0,0,0,0,0,0,0,0,0,0,0,0,0,0,0,0,0,0,0,0,0,0,0,0,0,0,0,0,0,0,0,0,0,0,0,0,0,0,0,0,0,0,0,0,0,0,0,0,0,0,0,0,0,0,0,0,0,0,0,0,0,0,0,0,0,0,0,0,0,0,0,0,0,0,0,0,0,0,0,0,0,0,0,0,0,0],"sum_hessian":[8.440762E3,3.37119E3,5.0695723E3,3.2266147E3,1.4457512E2,4.5046416E3,5.6493085E2,3.2016409E3,2.497395E1,3.29E1,1.1167512E2,4.334497E3,1.7014433E2,3.6175427E2,2.0317656E2,1.8457802E1,6.516148E0,1.5715826E1,1.7184177E1,1.0664158E2,5.033535E0,4.0302808E3,3.042164E2,9.5665085E1,7.447924E1,2.8774982E2,7.400445E1,3.620269E1,1.6697388E2,1.5827949E1,2.6298525E0,1.0793269E1,4.922557E0,1.5606978E1,1.5771986E0,3.4131543E2,3.6889653E3,9.13961E1,2.128203E2,5.8555084E1,3.711E1,4.484028E1,2.9638966E1,1.623623E2,1.2538751E2,1.4949273E1,5.9055176E1,2.8760853E1,7.441837E0,5.3656273E1,1.133176E2,1.4728695E1,1.0992535E0,3.2970645E2,1.1608977E1,3.6116929E3,7.727228E1,6.3645477E1,2.7750628E1,1.860092E2,2.6811098E1,4.6187256E1,1.2367828E1,5.9146333E0,3.1195368E1,3.6293156E1,8.547122E0,2.004846E1,1.4231384E2,8.816284E0,1.1657123E2,7.980157E0,6.9691157E0,7.1453977E0,5.190978E1,7.4427156E0,2.1318138E1,2.4372076E1,2.9284197E1,1.0668479E2,6.6328063E0,5.17197E1,2.7798676E2,3.599946E3,1.1746902E1,3.9747402E1,3.752487E1,2.7439404E1,3.6206074E1,2.2144926E1,5.605703E0,1.7737619E2,8.633006E0,1.7133936E1,9.677162E0,3.8463017E1,7.7242393E0,2.2196081E1,8.999287E0,3.4107353E1,2.1858015E0,1.3336281E1,6.712178E0,9.734355E1,4.497029E1,9.557523E1,2.0995995E1,2.1328487E0,4.9776928E1,1.6595413E1,4.7227244E0,8.963475E0,1.5408602E1,1.5701821E0,2.7714014E1,1.0031925E2,6.3655434E0],"tree_param":{"num_deleted":"0","num_feature":"78","num_nodes":"117","size_leaf_vector":"0"}},{"base_weights":[-0E0,-1.0002359E0,7.054495E-1,-1.160601E0,-2.316566E-1,-3.6362585E-1,8.6952615E-1,-1.5163909E-1,-8.3534056E-1,-7.4762446E-1,1.5221916E-1,-6.313498E-1,-0E0,5.7581353E-1,1.0064182E0,-1.0466595E0,-1.10462755E-1,-9.4036955E-1,2.1297902E-1,4.545223E-1,-1.5332022E-1,-9.003979E-1,-1.8541788E-1,-6.984569E-1,1.7583698E-1,7.878447E-1,1.0105402E-1,1.04154E0,4.2519575E-1,-1.5335235E-1,-1.1112082E-1,-1.05807066E-1,1.2446765E-1,-1.02832E0,-0E0,-3.7304305E-2,6.353385E-1,5.8391273E-1,-7.696062E-2,-6.431231E-1,1.3072342E-1,-9.671086E-1,-0E0,5.2041426E-2,-1.2534086E-1,-1.4017078E-1,-0E0,3.5355753E-1,-1.090957E-1,4.7879413E-1,9.99688E-1,-9.242521E-1,3.014762E-1,1.322466E-1,-0E0,-4.139101E-1,5.4343295E-1,2.3303619E-2,-9.696573E-2,5.9358996E-1,-7.692674E-2,-0E0,-1.1579087E0,3.8885128E-2,-8.215296E-3,1.09266676E-1,-0E0,6.9956964E-1,-3.8658857E-2,-8.9359593E-1,-0E0,-3.258964E-1,7.7097076E-1,-1.3062319E-1,-0E0,4.5234114E-2,-5.730895E-3,2.8409126E-1,-7.9695515E-2,-1.5231845E-3,2.4148645E-1,-3.3146173E-1,5.481178E-1,6.269947E-1,-8.6795956E-2,1.0204366E0,-0E0,-1.0637739E0,-0E0,4.5834914E-1,-5.8625174E-1,-9.587156E-2,-0E0,6.980143E-1,-0E0,-6.7192717E-3,4.6092726E-2,9.6245304E-2,-0E0,-8.4591925E-2,9.600485E-2,-0E0,-1.5753146E-1,1.00321114E-1,-0E0,-7.8516036E-2,2.0135143E-3,-1.3342543E-1,-0E0,2.391616E-2,-4.8200465E-3,-1.1346515E-1,3.543158E-3,-0E0,1.1129146E-1,-2.5390163E-2,2.5149142E-2,6.862471E-2,-3.2653853E-2,6.044822E-2,-0E0,-1.0939287E-1,1.49576375E-2,7.976058E-2,-2.3533436E-2,2.2012896E-3,9.390802E-2,-1.3476317E-1,1.2411068E-2,1.3100147E-1,-0E0,-1.6452721E-1,-0E0,6.7283526E-2,-2.670812E-2,-1.5477458E-1,-0E0,-0E0,9.6173875E-2,-4.6373304E-2,4.0871467E-2],"categories":[],"categories_nodes":[],"categories_segments":[],"categories_sizes":[],"default_left":[0,0,0,0,0,0,0,0,0,0,0,0,0,0,0,0,0,0,0,0,0,0,0,0,0,0,0,0,0,0,0,0,0,0,0,0,0,0,0,0,0,0,0,0,0,0,0,0,0,0,0,0,0,0,0,0,0,0,0,0,0,0,0,0,0,0,0,0,0,0,0,0,0,0,0,0,0,0,0,0,0,0,0,0,0,0,0,0,0,0,0,0,0,0,0,0,0,0,0,0,0,0,0,0,0,0,0,0,0,0,0,0,0,0,0,0,0,0,0,0,0,0,0,0,0,0,0,0,0,0,0,0,0,0,0,0,0,0,0,0,0],"id":9,"left_children":[1,3,5,7,9,11,13,-1,15,17,19,21,23,25,27,29,31,33,35,37,39,41,43,45,47,49,51,53,55,-1,57,-1,59,61,63,-1,65,67,-1,69,71,73,75,77,-1,-1,79,81,-1,83,85,87,89,-1,-1,91,93,95,-1,97,-1,99,101,-1,-1,-1,-1,103,105,107,109,111,113,-1,115,-1,-1,117,-1,-1,119,121,123,125,127,129,-1,131,-1,133,135,-1,-1,137,139,-1,-1,-1,-1,-1,-1,-1,-1,-1,-1,-1,-1,-1,-1,-1,-1,-1,-1,-1,-1,-1,-1,-1,-1,-1,-1,-1,-1,-1,-1,-1,-1,-1,-1,-1,-1,-1,-1,-1,-1,-1,-1,-1,-1,-1,-1],"loss_changes":[5.656026E3,3.95688E2,8.3125757E2,9.099121E0,1.22209366E2,6.084771E1,1.4779883E2,0E0,3.907199E1,5.5483154E1,3.3831383E1,3.354991E1,3.4293465E1,1.2682773E2,4.173291E1,2.5210663E1,2.1321272E1,2.3295288E1,1.320725E1,2.7589443E1,2.6785957E1,1.6299408E1,3.730485E1,2.0962875E1,3.944811E1,4.4621033E1,8.589346E1,9.934814E0,2.07211E1,0E0,1.0316573E1,0E0,2.4877653E1,2.4217773E1,1.6772735E0,0E0,9.350093E0,1.7810982E1,0E0,1.4064716E1,3.3669388E1,1.1710144E1,1.5649083E0,1.7526423E1,0E0,0E0,1.1218733E0,2.995424E1,0E0,3.801854E1,1.8023865E1,1.1914574E1,5.289181E1,0E0,0E0,5.003054E0,1.5604294E1,3.5652235E0,0E0,9.390549E0,0E0,2.049601E1,2.0217789E1,0E0,0E0,0E0,0E0,1.0376114E1,5.4951315E0,1.270285E1,6.9547534E-1,1.793633E1,7.52071E0,0E0,1.1038394E0,0E0,0E0,1.7543375E1,0E0,0E0,2.7227912E0,1.6194479E1,1.4384586E1,1.68488E1,2.2387167E1,1.2339783E1,0E0,1.1300735E1,0E0,1.926387E1,2.676174E1,0E0,0E0,7.3962708E0,5.9714518E0,0E0,0E0,0E0,0E0,0E0,0E0,0E0,0E0,0E0,0E0,0E0,0E0,0E0,0E0,0E0,0E0,0E0,0E0,0E0,0E0,0E0,0E0,0E0,0E0,0E0,0E0,0E0,0E0,0E0,0E0,0E0,0E0,0E0,0E0,0E0,0E0,0E0,0E0,0E0,0E0,0E0,0E0,0E0,0E0,0E0,0E0],"parents":[2147483647,0,0,1,1,2,2,3,3,4,4,5,5,6,6,8,8,9,9,10,10,11,11,12,12,13,13,14,14,15,15,16,16,17,17,18,18,19,19,20,20,21,21,22,22,23,23,24,24,25,25,26,26,27,27,28,28,30,30,32,32,33,33,34,34,36,36,37,37,39,39,40,40,41,41,42,42,43,43,46,46,47,47,49,49,50,50,51,51,52,52,55,55,56,56,57,57,59,59,61,61,62,62,67,67,68,68,69,69,70,70,71,71,72,72,74,74,77,77,80,80,81,81,82,82,83,83,84,84,85,85,87,87,89,89,90,90,93,93,94,94],"right_children":[2,4,6,8,10,12,14,-1,16,18,20,22,24,26,28,30,32,34,36,38,40,42,44,46,48,50,52,54,56,-1,58,-1,60,62,64,-1,66,68,-1,70,72,74,76,78,-1,-1,80,82,-1,84,86,88,90,-1,-1,92,94,96,-1,98,-1,100,102,-1,-1,-1,-1,104,106,108,110,112,114,-1,116,-1,-1,118,-1,-1,120,122,124,126,128,130,-1,132,-1,134,136,-1,-1,138,140,-1,-1,-1,-1,-1,-1,-1,-1,-1,-1,-1,-1,-1,-1,-1,-1,-1,-1,-1,-1,-1,-1,-1,-1,-1,-1,-1,-1,-1,-1,-1,-1,-1,-1,-1,-1,-1,-1,-1,-1,-1,-1,-1,-1,-1,-1],"split_conditions":[2.9E1,4.07E0,1.25E0,2E1,1.41E2,4.5E2,4.66E2,-1.5163909E-1,1.012578E15,1E0,4.5E0,4.617686E14,1E0,4.47E0,5E0,3.77E0,4.09E0,2.5E1,8E0,1E0,4.51E0,1E0,1E0,6.7167665E14,4.44E0,4.24E0,4.16E0,4.83E0,4.03E0,-1.5335235E-1,4.21E0,-1.05807066E-1,4.41E0,4.39E0,1E0,-3.7304305E-2,4.74E0,1E0,-7.696062E-2,1.8147641E15,1E0,1E0,1.21E2,1E0,-1.2534086E-1,-1.4017078E-1,4.09E0,3.47E0,-1.090957E-1,1E0,4.7E0,1E0,1E0,1.322466E-1,-0E0,1E0,1E0,2.6E1,-9.696573E-2,1E0,-7.692674E-2,4.35E0,9.501334E12,3.8885128E-2,-8.215296E-3,1.09266676E-1,-0E0,4.91E0,4.57E0,5.63E2,2.558929E15,2.74E2,4.51E0,-1.3062319E-1,3.2200272E14,4.5234114E-2,-5.730895E-3,1.0948984E15,-7.9695515E-2,-1.5231845E-3,1E0,1.53E2,1E0,3.8E1,2.52E2,1E0,-0E0,4.27E2,-0E0,4.71E0,4.91E0,-9.587156E-2,-0E0,4.7E1,1E0,-6.7192717E-3,4.6092726E-2,9.6245304E-2,-0E0,-8.4591925E-2,9.600485E-2,-0E0,-1.5753146E-1,1.00321114E-1,-0E0,-7.8516036E-2,2.0135143E-3,-1.3342543E-1,-0E0,2.391616E-2,-4.8200465E-3,-1.1346515E-1,3.543158E-3,-0E0,1.1129146E-1,-2.5390163E-2,2.5149142E-2,6.862471E-2,-3.2653853E-2,6.044822E-2,-0E0,-1.0939287E-1,1.49576375E-2,7.976058E-2,-2.3533436E-2,2.2012896E-3,9.390802E-2,-1.3476317E-1,1.2411068E-2,1.3100147E-1,-0E0,-1.6452721E-1,-0E0,6.7283526E-2,-2.670812E-2,-1.5477458E-1,-0E0,-0E0,9.6173875E-2,-4.6373304E-2,4.0871467E-2],"split_indices":[6,3,1,6,5,5,5,0,7,13,4,7,15,4,4,1,0,6,6,42,0,29,34,7,0,0,0,0,0,0,4,0,0,3,25,0,3,16,0,7,37,76,5,42,0,0,0,0,0,34,0,50,42,0,0,59,42,6,0,37,0,3,7,0,0,0,0,3,0,5,7,5,4,0,7,0,0,7,0,0,42,6,72,6,5,73,0,5,0,0,1,0,0,6,19,0,0,0,0,0,0,0,0,0,0,0,0,0,0,0,0,0,0,0,0,0,0,0,0,0,0,0,0,0,0,0,0,0,0,0,0,0,0,0,0,0,0,0,0,0,0],"split_type":[0,0,0,0,0,0,0,0,0,0,0,0,0,0,0,0,0,0,0,0,0,0,0,0,0,0,0,0,0,0,0,0,0,0,0,0,0,0,0,0,0,0,0,0,0,0,0,0,0,0,0,0,0,0,0,0,0,0,0,0,0,0,0,0,0,0,0,0,0,0,0,0,0,0,0,0,0,0,0,0,0,0,0,0,0,0,0,0,0,0,0,0,0,0,0,0,0,0,0,0,0,0,0,0,0,0,0,0,0,0,0,0,0,0,0,0,0,0,0,0,0,0,0,0,0,0,0,0,0,0,0,0,0,0,0,0,0,0,0,0,0],"sum_hessian":[8.00255E3,3.3064478E3,4.6961016E3,2.7242297E3,5.8221814E2,6.17377E2,4.0787246E3,2.4124766E3,3.1175308E2,2.5402089E2,3.2819727E2,3.5255832E2,2.648187E2,1.3267399E3,2.7519849E3,2.3060062E2,8.115246E1,2.184096E2,3.561129E1,1.7591426E2,1.5228302E2,2.0441254E2,1.4814577E2,4.882679E1,2.1599191E2,9.0253204E2,4.2420776E2,2.5771414E3,1.7484341E2,1.8739798E2,4.3202633E1,2.3360762E1,5.77917E1,2.0347871E2,1.4930881E1,8.85808E0,2.675321E1,1.6624149E2,9.672774E0,6.2504406E1,8.977861E1,1.9363698E2,1.0775566E1,1.1220956E2,3.593622E1,3.219209E1,1.6634699E1,1.9487683E2,2.1115093E1,3.9161426E2,5.109178E2,5.872729E1,3.6548047E2,2.5754287E3,1.712765E0,1.1248508E1,1.6359491E2,3.1875008E1,1.1327625E1,4.2500336E1,1.5291365E1,2.6479706E1,1.7699901E2,9.9428425E0,4.9880376E0,2.374885E1,3.0043597E0,1.4991956E2,1.6321932E1,4.6462345E1,1.604206E1,4.744372E1,4.233489E1,1.8054907E2,1.3087898E1,4.74789E0,6.0276756E0,9.535105E1,1.6858505E1,4.7431965E0,1.1891502E1,3.3166565E1,1.6171027E2,3.20521E2,7.109327E1,5.0736652E2,3.5512743E0,5.306796E1,5.6593313E0,3.210124E2,4.446809E1,6.9776754E0,4.2708325E0,1.2830437E2,3.529054E1,1.2510997E1,1.936401E1,3.9380302E1,3.120034E0,1.6885342E1,9.594363E0,1.1365275E1,1.6563374E2,1.3198544E2,1.7934113E1,7.0750523E0,9.24688E0,4.2865685E1,3.5966594E0,1.1731738E1,4.310324E0,2.2271042E1,2.5172678E1,1.6491485E0,4.0685738E1,8.157482E0,4.9304166E0,7.431831E1,2.1032734E1,9.56793E0,2.3235722E0,1.9993486E1,1.3173076E1,1.5600035E2,5.709915E0,6.2578064E1,2.5794293E2,1.243626E1,5.8657013E1,5.0559058E2,1.7759359E0,3.99125E1,1.3155462E1,3.0136145E2,1.9650928E1,2.2546604E1,2.1921484E1,8.090824E0,1.2021355E2,1.8665554E1,1.6624985E1],"tree_param":{"num_deleted":"0","num_feature":"78","num_nodes":"141","size_leaf_vector":"0"}},{"base_weights":[-8.02849E-3,-9.063391E-1,6.651728E-1,-1.0934026E0,-2.9169056E-1,-4.4616067E-1,8.229803E-1,-1.4620075E-1,-7.782761E-1,-7.515067E-1,7.475727E-2,-8.140495E-1,-4.3599803E-2,5.3819287E-1,9.829854E-1,-8.312804E-1,1.1218835E-1,-3.1688148E-1,-1.4624254E-1,3.6268824E-1,-3.69335E-1,-8.4903866E-1,-0E0,4.900567E-2,-6.761702E-1,6.429928E-1,-5.897683E-2,1.0173279E0,4.293908E-1,-8.6987394E-1,-0E0,-0E0,5.531866E-1,-4.886571E-1,7.8502595E-1,-5.5812186E-1,4.875597E-1,-5.636506E-1,1.6122697E-1,-0E0,-9.289475E-1,-4.376411E-1,3.4101442E-1,-0E0,-1.0932912E-1,7.1969E-1,9.878285E-2,-1.01981044E-1,2.5335116E-2,1.0194688E0,-0E0,-1.2948702E-1,5.401604E-1,-0E0,-9.017052E-1,2.0118698E-2,-0E0,8.8093735E-2,-0E0,-8.202458E-1,-0E0,1.15771376E-1,-0E0,-1.06475085E-1,-0E0,-2.504146E-1,6.094479E-1,-1.6940792E-1,-1.6760573E-1,4.4365117E-1,-9.380423E-3,-5.2453045E-2,1.5531256E-2,-1.2062764E-1,-0E0,-1.3366012E-1,1.2599054E-2,4.3363574E-1,-3.3575483E-2,-0E0,7.609997E-1,-5.030685E-1,4.17429E-1,3.037848E-1,-5.077281E-1,1.9471908E-1,1.3016066E-1,-8.9038216E-2,-0E0,6.2084806E-1,-0E0,-1.1766764E-1,-0E0,4.1816635E-3,-1.21947266E-1,-3.139097E-2,3.4711055E-2,-7.718288E-2,5.386663E-3,8.458545E-2,-1.9041805E-2,4.912824E-3,-1.2946264E-1,7.4142486E-2,-0E0,3.688027E-2,-0E0,-6.903201E-2,6.3169025E-2,7.1039625E-2,-0E0,3.133596E-2,-1.2076533E-1,1.01793244E-1,-0E0,-1.6571154E-1,-0E0,-0E0,8.75573E-2,-0E0,6.310476E-2,-1.3447401E-1,-0E0,5.9512213E-2,-1.9083668E-3,8.365678E-2,-0E0,-5.2747086E-2,3.2890516E-3],"categories":[],"categories_nodes":[],"categories_segments":[],"categories_sizes":[],"default_left":[0,0,0,0,0,0,0,0,0,0,0,0,0,0,0,0,0,0,0,0,0,0,0,0,0,0,0,0,0,0,0,0,0,0,0,0,0,0,0,0,0,0,0,0,0,0,0,0,0,0,0,0,0,0,0,0,0,0,0,0,0,0,0,0,0,0,0,0,0,0,0,0,0,0,0,0,0,0,0,0,0,0,0,0,0,0,0,0,0,0,0,0,0,0,0,0,0,0,0,0,0,0,0,0,0,0,0,0,0,0,0,0,0,0,0,0,0,0,0,0,0,0,0,0,0,0,0,0,0],"id":10,"left_children":[1,3,5,7,9,11,13,-1,15,17,19,21,23,25,27,29,31,33,-1,35,37,39,-1,41,43,45,47,49,51,53,55,-1,57,59,61,63,65,67,69,71,73,75,77,-1,-1,79,81,-1,83,85,-1,87,89,-1,91,-1,-1,-1,-1,93,95,-1,-1,-1,-1,97,99,-1,101,103,-1,-1,105,-1,-1,-1,107,109,-1,111,113,115,117,119,121,123,-1,-1,-1,125,127,-1,-1,-1,-1,-1,-1,-1,-1,-1,-1,-1,-1,-1,-1,-1,-1,-1,-1,-1,-1,-1,-1,-1,-1,-1,-1,-1,-1,-1,-1,-1,-1,-1,-1,-1,-1,-1,-1],"loss_changes":[4.492852E3,3.5328223E2,7.4922485E2,2.4776367E1,1.3422395E2,7.098161E1,1.5393652E2,0E0,2.6747528E1,4.6920258E1,5.4879642E1,1.048793E1,2.0848253E1,9.068381E1,3.0407227E1,1.9578552E1,5.02623E0,3.58905E1,0E0,3.2517113E1,2.0173386E1,1.0336777E1,0E0,3.3126507E1,2.52104E0,4.235898E1,1.8795977E1,8.079834E0,1.3811123E1,1.0680725E1,4.0271366E-1,0E0,2.4722128E0,2.5305672E1,3.9421415E0,6.609453E0,2.6318016E1,2.6129559E1,5.602138E0,3.3499763E0,5.1388855E0,3.0336079E1,1.1027632E1,0E0,0E0,3.1898743E1,3.2822735E1,0E0,2.596422E1,3.2194824E0,0E0,6.5008197E0,9.528778E0,0E0,7.908203E0,0E0,0E0,0E0,0E0,1.9409729E1,5.900136E0,0E0,0E0,0E0,0E0,7.887877E0,1.4677498E1,0E0,2.5543264E1,4.1667585E0,0E0,0E0,1.7816533E0,0E0,0E0,0E0,1.4118513E1,1.0095089E1,0E0,1.7320377E1,3.1561157E1,3.1045599E1,1.4428165E1,1.0121548E1,1.981961E1,5.816184E0,0E0,0E0,0E0,6.0238953E0,2.1801202E0,0E0,0E0,0E0,0E0,0E0,0E0,0E0,0E0,0E0,0E0,0E0,0E0,0E0,0E0,0E0,0E0,0E0,0E0,0E0,0E0,0E0,0E0,0E0,0E0,0E0,0E0,0E0,0E0,0E0,0E0,0E0,0E0,0E0,0E0,0E0,0E0,0E0,0E0],"parents":[2147483647,0,0,1,1,2,2,3,3,4,4,5,5,6,6,8,8,9,9,10,10,11,11,12,12,13,13,14,14,15,15,16,16,17,17,19,19,20,20,21,21,23,23,24,24,25,25,26,26,27,27,28,28,29,29,30,30,32,32,33,33,34,34,35,35,36,36,37,37,38,38,39,39,40,40,41,41,42,42,45,45,46,46,48,48,49,49,51,51,52,52,54,54,59,59,60,60,65,65,66,66,68,68,69,69,72,72,76,76,77,77,79,79,80,80,81,81,82,82,83,83,84,84,85,85,89,89,90,90],"right_children":[2,4,6,8,10,12,14,-1,16,18,20,22,24,26,28,30,32,34,-1,36,38,40,-1,42,44,46,48,50,52,54,56,-1,58,60,62,64,66,68,70,72,74,76,78,-1,-1,80,82,-1,84,86,-1,88,90,-1,92,-1,-1,-1,-1,94,96,-1,-1,-1,-1,98,100,-1,102,104,-1,-1,106,-1,-1,-1,108,110,-1,112,114,116,118,120,122,124,-1,-1,-1,126,128,-1,-1,-1,-1,-1,-1,-1,-1,-1,-1,-1,-1,-1,-1,-1,-1,-1,-1,-1,-1,-1,-1,-1,-1,-1,-1,-1,-1,-1,-1,-1,-1,-1,-1,-1,-1,-1,-1],"split_conditions":[2.41E2,3.19E0,7.5E-1,1.19E2,1.39E2,4.5E2,5.4E2,-1.4620075E-1,1E0,4.48E0,1E0,1E0,4.44E0,4.98E0,5E0,4.51E0,1E0,4.41E0,-1.4624254E-1,4E0,1E0,2.52E2,-0E0,3.69E0,1E0,4.75E0,4.09E0,4.83E0,4.03E0,1.21E2,1.68E0,-0E0,1E0,9.5E1,4.45E0,1E0,1E0,4.23E0,1E0,4.23E0,1.55E0,8.81E2,1E0,-0E0,-1.0932912E-1,3.59E0,4.4E0,-1.01981044E-1,4.55E0,3.3E0,-0E0,1E0,1E0,-0E0,1E0,2.0118698E-2,-0E0,8.8093735E-2,-0E0,3.35E0,1E0,1.15771376E-1,-0E0,-1.06475085E-1,-0E0,1E0,1E0,-1.6940792E-1,4.68E0,1E0,-9.380423E-3,-5.2453045E-2,1E0,-1.2062764E-1,-0E0,-1.3366012E-1,1E0,1E0,-3.3575483E-2,3.35E0,1E0,4.27E2,4.71E0,4.81E0,4.02E2,3.63E0,1.3016066E-1,-8.9038216E-2,-0E0,4.8E0,1E0,-1.1766764E-1,-0E0,4.1816635E-3,-1.21947266E-1,-3.139097E-2,3.4711055E-2,-7.718288E-2,5.386663E-3,8.458545E-2,-1.9041805E-2,4.912824E-3,-1.2946264E-1,7.4142486E-2,-0E0,3.688027E-2,-0E0,-6.903201E-2,6.3169025E-2,7.1039625E-2,-0E0,3.133596E-2,-1.2076533E-1,1.01793244E-1,-0E0,-1.6571154E-1,-0E0,-0E0,8.75573E-2,-0E0,6.310476E-2,-1.3447401E-1,-0E0,5.9512213E-2,-1.9083668E-3,8.365678E-2,-0E0,-5.2747086E-2,3.2890516E-3],"split_indices":[5,1,4,5,5,5,5,0,50,4,40,10,0,3,4,3,33,4,0,0,33,5,0,0,25,4,0,0,0,5,4,0,40,5,3,33,25,0,34,0,3,5,75,0,0,0,0,0,0,0,0,59,75,0,76,0,0,0,0,1,51,0,0,0,0,33,44,0,1,64,0,0,40,0,0,0,11,26,0,4,75,5,3,1,5,3,0,0,0,0,23,0,0,0,0,0,0,0,0,0,0,0,0,0,0,0,0,0,0,0,0,0,0,0,0,0,0,0,0,0,0,0,0,0,0,0,0,0,0],"split_type":[0,0,0,0,0,0,0,0,0,0,0,0,0,0,0,0,0,0,0,0,0,0,0,0,0,0,0,0,0,0,0,0,0,0,0,0,0,0,0,0,0,0,0,0,0,0,0,0,0,0,0,0,0,0,0,0,0,0,0,0,0,0,0,0,0,0,0,0,0,0,0,0,0,0,0,0,0,0,0,0,0,0,0,0,0,0,0,0,0,0,0,0,0,0,0,0,0,0,0,0,0,0,0,0,0,0,0,0,0,0,0,0,0,0,0,0,0,0,0,0,0,0,0,0,0,0,0,0,0],"sum_hessian":[7.411649E3,3.1788284E3,4.2328203E3,2.4230874E3,7.5574115E2,5.185554E2,3.714265E3,1.9960962E3,4.2699115E2,3.4112997E2,4.1461115E2,2.5699072E2,2.6156467E2,1.3650204E3,2.3492446E3,4.116665E2,1.5324658E1,1.7959097E2,1.61539E2,2.6291818E2,1.5169298E2,2.5020428E2,6.7864494E0,2.2337578E2,3.818889E1,1.1717808E3,1.9323961E2,2.1930837E3,1.5616095E2,4.011876E2,1.0478912E1,5.285219E0,1.0039439E1,1.6497081E2,1.4620169E1,2.096247E1,2.4195572E2,1.21374214E2,3.0318764E1,3.0420263E1,2.1978401E2,7.2459694E1,1.5091609E2,1.4174806E1,2.4014084E1,1.0125021E3,1.5927866E2,2.2598734E1,1.7064087E2,2.1916257E3,1.4578997E0,1.4066991E1,1.4209396E2,1.5196053E1,3.8599155E2,8.656576E0,1.8223367E0,8.785202E0,1.2542367E0,9.144255E1,7.352825E1,1.3598528E1,1.0216401E0,1.4517559E1,6.4449105E0,2.420172E1,2.17754E2,2.8598944E1,9.277527E1,2.5786198E1,4.5325646E0,1.2195107E1,1.8225155E1,2.1457524E2,5.2087727E0,3.366921E1,3.879048E1,1.4379364E2,7.122444E0,5.2631996E1,9.5987006E2,4.5261593E1,1.1401707E2,1.23696014E2,4.694485E1,3.1605612E1,2.1600203E3,6.574136E0,7.492855E0,1.3050276E2,1.1591201E1,3.726542E2,1.3337333E1,6.088626E0,8.535393E1,4.5078815E1,2.8449434E1,1.9207333E1,4.994387E0,2.1256749E2,5.186513E0,7.304727E1,1.9727993E1,2.3881077E1,1.9051223E0,1.3785639E1,4.4395165E0,1.0234598E1,2.8555883E1,1.1519115E2,2.8602497E1,4.43617E1,8.270295E0,9.0941254E2,5.0457573E1,1.8613329E1,2.6648262E1,4.6844246E1,6.717282E1,4.1464203E1,8.223182E1,2.2697865E1,2.4246986E1,2.5723864E1,5.8817477E0,1.2836508E2,2.1376855E0,5.210081E0,6.3811193E0],"tree_param":{"num_deleted":"0","num_feature":"78","num_nodes":"129","size_leaf_vector":"0"}},{"base_weights":[-3.5316607E-3,-9.229974E-1,6.311818E-1,-1.1139147E0,-2.6081213E-1,-2.286738E-1,7.7529037E-1,-1.4176182E-1,-9.93226E-3,-1.0340315E0,-8.951971E-3,-4.327715E-2,-7.8492665E-1,5.129054E-1,9.431149E-1,2.2056134E-2,-6.6351615E-2,-1.425698E-1,-5.8415037E-2,-2.5238165E-1,4.04318E-1,-4.478923E-1,1.1900918E-1,-1.4417958E-1,3.14776E-2,6.9961655E-1,1.2814566E-1,9.803106E-1,3.4238094E-1,9.538749E-2,-6.3127935E-2,2.1483159E-2,-5.367639E-1,5.8560205E-1,-4.5219466E-1,-1.4203212E-1,1.468034E-1,-3.4915918E-1,2.8408927E-1,-1.3985089E-2,2.9436496E-1,7.35998E-1,-4.9329538E-2,2.5909537E-1,-4.7548616E-1,1.2648825E-1,3.3462626E-1,-0E0,6.1836016E-1,-0E0,4.0882397E-2,-5.9406817E-1,2.6813674E-1,-1.0428188E0,-2.191206E-3,6.9538456E-1,-2.8218187E-2,-6.7072845E-1,-0E0,-0E0,9.224852E-2,-0E0,-1.1231068E-1,5.6384534E-1,-0E0,4.8957932E-1,-0E0,-0E0,7.759431E-1,-1.3595608E-1,2.1928366E-1,3.205504E-1,-1.1751088E-1,-8.388981E-1,1.3054503E-2,-2.7813858E-1,6.0584486E-1,-3.3628836E-1,-0E0,6.842052E-1,-0E0,-0E0,-1.1050301E-1,5.792343E-2,-4.2964682E-2,-1.7035389E-1,-0E0,-1.0107212E-1,3.0215941E-2,-0E0,9.514677E-2,-0E0,-4.2868838E-2,-1.0303199E-1,-0E0,-8.405271E-2,2.0276785E-2,4.2660594E-2,-3.062629E-2,1.4485393E-2,1.3688782E-1,-6.791932E-2,2.9121444E-2,7.2682366E-2,-0E0,-5.0816055E-2,-0E0,1.0337714E-1,-0E0,5.2967258E-2,-0E0,-5.2984998E-2,5.0948933E-2,-0E0,-1.6370083E-1,2.7351744E-2,-0E0,-8.546371E-2,-0E0,-0E0,8.581433E-2,-0E0,-1.0046816E-1,3.2729514E-2,-3.881124E-2,9.384386E-2,-0E0],"categories":[],"categories_nodes":[],"categories_segments":[],"categories_sizes":[],"default_left":[0,0,0,0,0,0,0,0,0,0,0,0,0,0,0,0,0,0,0,0,0,0,0,0,0,0,0,0,0,0,0,0,0,0,0,0,0,0,0,0,0,0,0,0,0,0,0,0,0,0,0,0,0,0,0,0,0,0,0,0,0,0,0,0,0,0,0,0,0,0,0,0,0,0,0,0,0,0,0,0,0,0,0,0,0,0,0,0,0,0,0,0,0,0,0,0,0,0,0,0,0,0,0,0,0,0,0,0,0,0,0,0,0,0,0,0,0,0,0,0,0,0,0,0,0,0,0],"id":11,"left_children":[1,3,5,7,9,11,13,-1,15,17,19,21,23,25,27,-1,-1,-1,29,31,33,35,37,-1,39,41,43,45,47,49,-1,51,53,55,57,-1,59,61,63,-1,65,67,69,71,73,-1,75,77,79,-1,-1,81,83,85,87,89,91,93,-1,95,-1,97,-1,99,101,103,-1,105,107,-1,109,111,-1,113,115,117,119,121,123,125,-1,-1,-1,-1,-1,-1,-1,-1,-1,-1,-1,-1,-1,-1,-1,-1,-1,-1,-1,-1,-1,-1,-1,-1,-1,-1,-1,-1,-1,-1,-1,-1,-1,-1,-1,-1,-1,-1,-1,-1,-1,-1,-1,-1,-1,-1,-1],"loss_changes":[4.0547961E3,3.4638232E2,5.13968E2,3.0771484E0,1.1929642E2,5.3867153E1,1.4035059E2,0E0,5.649475E0,3.9806824E0,5.0730618E1,3.3034615E1,4.797602E1,9.4128174E1,3.4728394E1,0E0,0E0,0E0,5.3644233E0,3.0266779E1,3.0846605E1,6.7348724E1,2.4898022E1,0E0,3.2098289E0,3.1008453E1,3.738301E1,1.0244385E1,1.83626E1,1.1154807E0,0E0,2.3617823E1,4.035578E1,1.6010387E1,4.992451E0,0E0,1.2134876E1,1.8446434E1,2.2491505E1,0E0,4.738457E0,3.2303894E1,1.9392717E1,2.7515202E1,2.0337965E1,0E0,1.6459988E1,2.2103627E0,5.530834E0,0E0,0E0,1.2663417E1,1.7136047E1,1.7629349E1,2.5226831E1,1.0483299E1,1.7270318E0,7.913761E-1,0E0,1.0858905E1,0E0,4.8713865E0,0E0,2.1145844E1,1.7605095E1,2.5288672E0,0E0,2.852093E0,2.4640015E1,0E0,2.528811E0,2.5402733E1,0E0,1.9381088E1,1.3502282E0,3.6027608E0,4.018936E0,7.3382664E0,4.121874E0,6.3321075E0,0E0,0E0,0E0,0E0,0E0,0E0,0E0,0E0,0E0,0E0,0E0,0E0,0E0,0E0,0E0,0E0,0E0,0E0,0E0,0E0,0E0,0E0,0E0,0E0,0E0,0E0,0E0,0E0,0E0,0E0,0E0,0E0,0E0,0E0,0E0,0E0,0E0,0E0,0E0,0E0,0E0,0E0,0E0,0E0,0E0,0E0,0E0],"parents":[2147483647,0,0,1,1,2,2,3,3,4,4,5,5,6,6,8,8,9,9,10,10,11,11,12,12,13,13,14,14,18,18,19,19,20,20,21,21,22,22,24,24,25,25,26,26,27,27,28,28,29,29,31,31,32,32,33,33,34,34,36,36,37,37,38,38,40,40,41,41,42,42,43,43,44,44,46,46,47,47,48,48,51,51,52,52,53,53,54,54,55,55,56,56,57,57,59,59,61,61,63,63,64,64,65,65,67,67,68,68,70,70,71,71,73,73,74,74,75,75,76,76,77,77,78,78,79,79],"right_children":[2,4,6,8,10,12,14,-1,16,18,20,22,24,26,28,-1,-1,-1,30,32,34,36,38,-1,40,42,44,46,48,50,-1,52,54,56,58,-1,60,62,64,-1,66,68,70,72,74,-1,76,78,80,-1,-1,82,84,86,88,90,92,94,-1,96,-1,98,-1,100,102,104,-1,106,108,-1,110,112,-1,114,116,118,120,122,124,126,-1,-1,-1,-1,-1,-1,-1,-1,-1,-1,-1,-1,-1,-1,-1,-1,-1,-1,-1,-1,-1,-1,-1,-1,-1,-1,-1,-1,-1,-1,-1,-1,-1,-1,-1,-1,-1,-1,-1,-1,-1,-1,-1,-1,-1,-1,-1],"split_conditions":[3E1,3.79E0,1.25E0,4.68E0,9E1,1E0,5.4E2,-1.4176182E-1,4.73E0,1E0,2.62E2,1E0,9.6E1,4.47E0,5E0,2.2056134E-2,-6.6351615E-2,-1.425698E-1,3.77E0,4.45E0,1E0,6.9E1,1E0,-1.4417958E-1,6.85E2,1E0,1E0,4.95E0,9.1E1,4.26E0,-6.3127935E-2,4.03E0,4.83E0,4.91E0,1E0,-1.4203212E-1,1E0,1E0,1E0,-1.3985089E-2,1.53E2,2.56E0,1E0,1E0,4.66E2,1.2648825E-1,7.6E1,4.74E0,1E0,-0E0,4.0882397E-2,2.07E0,4.67E0,4.89E0,1.8E1,3.85E0,2.68E2,4.4E2,-0E0,7.27E2,9.224852E-2,4.4E1,-1.1231068E-1,1E0,4.4E1,1E0,-0E0,2.7E0,4.98E0,-1.3595608E-1,3.28E0,4.11E0,-1.1751088E-1,2.68E2,4.93E0,1E0,4.12E0,3.76E0,1E0,1E0,-0E0,-0E0,-1.1050301E-1,5.792343E-2,-4.2964682E-2,-1.7035389E-1,-0E0,-1.0107212E-1,3.0215941E-2,-0E0,9.514677E-2,-0E0,-4.2868838E-2,-1.0303199E-1,-0E0,-8.405271E-2,2.0276785E-2,4.2660594E-2,-3.062629E-2,1.4485393E-2,1.3688782E-1,-6.791932E-2,2.9121444E-2,7.2682366E-2,-0E0,-5.0816055E-2,-0E0,1.0337714E-1,-0E0,5.2967258E-2,-0E0,-5.2984998E-2,5.0948933E-2,-0E0,-1.6370083E-1,2.7351744E-2,-0E0,-8.546371E-2,-0E0,-0E0,8.581433E-2,-0E0,-1.0046816E-1,3.2729514E-2,-3.881124E-2,9.384386E-2,-0E0],"split_indices":[6,1,1,3,5,42,5,0,3,74,5,11,6,4,4,0,0,0,4,4,34,6,15,0,5,75,42,2,6,2,0,1,1,3,29,0,29,25,39,0,6,1,37,17,5,0,6,1,38,0,0,3,2,3,6,2,5,5,0,5,0,6,0,19,6,75,0,2,3,0,4,2,0,5,2,12,3,2,42,75,0,0,0,0,0,0,0,0,0,0,0,0,0,0,0,0,0,0,0,0,0,0,0,0,0,0,0,0,0,0,0,0,0,0,0,0,0,0,0,0,0,0,0,0,0,0,0],"split_type":[0,0,0,0,0,0,0,0,0,0,0,0,0,0,0,0,0,0,0,0,0,0,0,0,0,0,0,0,0,0,0,0,0,0,0,0,0,0,0,0,0,0,0,0,0,0,0,0,0,0,0,0,0,0,0,0,0,0,0,0,0,0,0,0,0,0,0,0,0,0,0,0,0,0,0,0,0,0,0,0,0,0,0,0,0,0,0,0,0,0,0,0,0,0,0,0,0,0,0,0,0,0,0,0,0,0,0,0,0,0,0,0,0,0,0,0,0,0,0,0,0,0,0,0,0,0,0],"sum_hessian":[6.9294443E3,2.833549E3,4.095895E3,2.186476E3,6.4707306E2,5.7959656E2,3.5162986E3,2.1697122E3,1.6763792E1,1.4585027E2,5.0122278E2,4.5106174E2,1.2853479E2,1.401277E3,2.1150217E3,4.810192E0,1.19536E1,1.2510303E2,2.0747244E1,3.2900656E2,1.7221623E2,1.3909387E2,3.1196786E2,9.4344444E1,3.4190342E1,9.2587445E2,4.7540253E2,1.9752131E3,1.3980846E2,6.5763416E0,1.4170902E1,1.5718153E2,1.7182503E2,1.5150224E2,2.0713993E1,6.831647E1,7.077741E1,6.697505E1,2.4499283E2,5.8384686E0,2.8351873E1,8.929597E2,3.291471E1,4.0462482E2,7.07777E1,1.9061709E3,6.904223E1,5.3997005E1,8.5811455E1,1.96391E0,4.6124315E0,3.303913E1,1.241424E2,7.725468E1,9.457035E1,1.3839E2,1.3112235E1,1.6521406E1,4.192587E0,5.2025444E1,1.8751966E1,3.9285904E1,2.7689144E1,1.2747949E2,1.1751333E2,2.53474E1,3.0044723E0,3.6652557E1,8.563071E2,8.277533E0,2.4637178E1,3.9597946E2,8.645382E0,4.6663857E1,2.4113846E1,1.2368885E1,5.6673344E1,1.222865E1,4.1768356E1,8.056404E1,5.247413E0,4.9813824E0,2.8057747E1,1.05774345E2,1.8368061E1,5.3314056E1,2.3940622E1,2.5502924E1,6.906742E1,2.1661775E0,1.3622383E2,5.199425E0,7.91281E0,1.0098799E1,6.4226065E0,1.4765312E1,3.726013E1,2.4014498E1,1.5271408E1,8.0950905E1,4.6528584E1,3.798802E1,7.952531E1,2.4161783E1,1.1856183E0,1.04153385E1,2.6237219E1,8.1083795E2,4.546921E1,1.5946811E1,8.690368E0,2.692956E1,3.690499E2,1.9610794E1,2.7053062E1,2.1773846E1,2.3399994E0,3.9496787E0,8.419206E0,4.02384E0,5.26495E1,4.3580103E0,7.8706393E0,3.5856327E1,5.9120293E0,7.922426E1,1.3397844E0],"tree_param":{"num_deleted":"0","num_feature":"78","num_nodes":"127","size_leaf_vector":"0"}},{"base_weights":[-1.3151316E-2,-9.0993184E-1,5.716186E-1,-1.3925035E-1,-3.4270245E-1,-3.1343505E-1,7.2140473E-1,-5.427323E-1,2.569841E-1,-6.603432E-1,-0E0,5.3048056E-1,9.6632123E-1,-6.8129903E-1,-3.1424336E-2,-6.037675E-1,4.4778195E-1,-7.8395635E-1,6.084018E-2,-4.8425972E-1,1.8187736E-1,6.966585E-1,2.3084201E-1,-0E0,9.7036046E-1,-8.835199E-1,-2.0986855E-1,-9.856121E-2,1.6377679E-1,-1.0971201E-1,-0E0,-0E0,5.7902867E-1,-8.208511E-1,-0E0,-5.515086E-2,5.131213E-1,-6.033411E-1,-0E0,-0E0,6.870837E-1,7.312841E-1,-0E0,-5.9024893E-2,4.846964E-1,1.2659806E-1,4.3278623E-1,-9.2798704E-1,-0E0,-0E0,-8.725E-1,4.603401E-1,-1.3413867E-1,-0E0,-1.8151258E-1,6.699783E-1,-9.342715E-3,-0E0,-8.7352955E-1,-7.082568E-2,8.266751E-3,-0E0,8.2694925E-2,-1.2429904E-1,-3.8564418E-2,1.557694E-1,-9.79688E-2,7.8526765E-1,-0E0,7.57354E-1,-0E0,-4.454951E-1,3.4759006E-1,-7.650343E-1,6.379662E-2,5.9818184E-1,-6.1844748E-2,5.26763E-1,-0E0,-0E0,-1.24331355E-1,-1.9609954E-2,4.4595852E-2,-1.3684294E-1,-0E0,8.816949E-2,-0E0,-7.1040235E-2,-0E0,-4.963328E-2,-0E0,9.3813576E-2,-0E0,-2.8235985E-2,3.0028732E-2,-3.8259577E-2,-1.2944277E-1,1.6155727E-2,-7.6240465E-2,4.9979005E-2,-1.9390618E-2,1.05222195E-1,-0E0,9.935615E-2,-0E0,-4.418359E-2,2.85687E-2,-0E0,-9.8659314E-2,4.9713448E-2,-0E0,-1.2845227E-1,-0E0,-1.8280022E-2,4.5044895E-2,-0E0,8.216914E-2,-9.6834645E-2,2.8337456E-2,-0E0,8.0377445E-2],"categories":[],"categories_nodes":[],"categories_segments":[],"categories_sizes":[],"default_left":[0,0,0,0,0,0,0,0,0,0,0,0,0,0,0,0,0,0,0,0,0,0,0,0,0,0,0,0,0,0,0,0,0,0,0,0,0,0,0,0,0,0,0,0,0,0,0,0,0,0,0,0,0,0,0,0,0,0,0,0,0,0,0,0,0,0,0,0,0,0,0,0,0,0,0,0,0,0,0,0,0,0,0,0,0,0,0,0,0,0,0,0,0,0,0,0,0,0,0,0,0,0,0,0,0,0,0,0,0,0,0,0,0,0,0,0,0,0,0,0,0],"id":12,"left_children":[1,3,5,-1,7,9,11,13,15,17,19,21,23,25,27,29,31,33,35,37,39,41,43,-1,45,47,49,-1,51,-1,-1,53,55,57,-1,59,61,63,-1,65,67,69,71,73,75,-1,77,79,-1,81,83,85,87,-1,89,91,-1,93,95,-1,-1,-1,-1,-1,97,99,-1,101,-1,103,105,107,109,111,113,115,117,119,-1,-1,-1,-1,-1,-1,-1,-1,-1,-1,-1,-1,-1,-1,-1,-1,-1,-1,-1,-1,-1,-1,-1,-1,-1,-1,-1,-1,-1,-1,-1,-1,-1,-1,-1,-1,-1,-1,-1,-1,-1,-1,-1],"loss_changes":[3.3795125E3,2.5922632E2,5.208552E2,0E0,8.211098E1,6.2638058E1,1.407915E2,3.0114258E1,2.7007927E1,3.0021133E1,2.6171404E1,8.676123E1,9.880249E0,2.6897415E1,2.4232222E1,6.02244E0,1.1511662E1,8.780136E0,5.7006564E0,8.40992E0,2.368504E1,3.1605164E1,5.567793E1,0E0,7.953003E0,1.2404846E1,1.8874601E1,0E0,1.1699112E1,0E0,0E0,8.4820825E-1,1.20690155E1,9.41922E0,0E0,5.456349E0,3.0407615E0,7.7149105E0,0E0,2.365208E1,8.089214E0,2.6850464E1,1.0745045E1,3.3821564E1,2.8799873E1,0E0,7.3597507E0,1.2290741E1,0E0,6.431522E0,6.6752357E0,6.865093E0,6.130187E0,0E0,2.603637E0,7.530781E0,0E0,1.545033E0,5.8913727E0,0E0,0E0,0E0,0E0,0E0,8.503542E0,1.2679285E1,0E0,3.8490906E0,0E0,2.397583E1,4.40234E0,9.580954E0,6.49631E-1,1.624644E1,1.856964E1,1.4927055E1,1.7964579E1,8.732149E0,0E0,0E0,0E0,0E0,0E0,0E0,0E0,0E0,0E0,0E0,0E0,0E0,0E0,0E0,0E0,0E0,0E0,0E0,0E0,0E0,0E0,0E0,0E0,0E0,0E0,0E0,0E0,0E0,0E0,0E0,0E0,0E0,0E0,0E0,0E0,0E0,0E0,0E0,0E0,0E0,0E0,0E0,0E0],"parents":[2147483647,0,0,1,1,2,2,4,4,5,5,6,6,7,7,8,8,9,9,10,10,11,11,12,12,13,13,14,14,15,15,16,16,17,17,18,18,19,19,20,20,21,21,22,22,24,24,25,25,26,26,28,28,31,31,32,32,33,33,35,35,36,36,37,37,39,39,40,40,41,41,42,42,43,43,44,44,46,46,47,47,49,49,50,50,51,51,52,52,54,54,55,55,57,57,58,58,64,64,65,65,67,67,69,69,70,70,71,71,72,72,73,73,74,74,75,75,76,76,77,77],"right_children":[2,4,6,-1,8,10,12,14,16,18,20,22,24,26,28,30,32,34,36,38,40,42,44,-1,46,48,50,-1,52,-1,-1,54,56,58,-1,60,62,64,-1,66,68,70,72,74,76,-1,78,80,-1,82,84,86,88,-1,90,92,-1,94,96,-1,-1,-1,-1,-1,98,100,-1,102,-1,104,106,108,110,112,114,116,118,120,-1,-1,-1,-1,-1,-1,-1,-1,-1,-1,-1,-1,-1,-1,-1,-1,-1,-1,-1,-1,-1,-1,-1,-1,-1,-1,-1,-1,-1,-1,-1,-1,-1,-1,-1,-1,-1,-1,-1,-1,-1,-1,-1],"split_conditions":[2.9E1,3.42E0,7.5E-1,-1.3925035E-1,2.62E2,4.8091675E14,8.6E1,1.6992022E15,2.3923015E14,1.149E3,1E0,4.49E0,2.3304667E13,2.1E1,6.6E1,1E0,2E1,1E0,1E0,1E0,9.1E1,1E0,6.365012E14,-0E0,5E0,1E0,5.245745E14,-9.856121E-2,4.48E0,-1.0971201E-1,-0E0,8E0,1E0,1.21E2,-0E0,3.7317984E14,1.448E3,7.57466E14,-0E0,1E0,1E0,4.79E0,6.3791686E14,4.51E0,1E0,1.2659806E-1,1E0,1.3516212E13,-0E0,1E0,1.4392235E15,1.6E1,1.69E2,-0E0,6.85E2,1E0,-9.342715E-3,1.19E2,7.77525E13,-7.082568E-2,8.266751E-3,-0E0,8.2694925E-2,-1.2429904E-1,1.0948984E15,3.7E2,-9.79688E-2,1E0,-0E0,1E0,6.0211565E15,4.1979073E13,4.08E0,7.6E1,1E0,4.02E0,5.16E2,4.66E2,-0E0,-0E0,-1.24331355E-1,-1.9609954E-2,4.4595852E-2,-1.3684294E-1,-0E0,8.816949E-2,-0E0,-7.1040235E-2,-0E0,-4.963328E-2,-0E0,9.3813576E-2,-0E0,-2.8235985E-2,3.0028732E-2,-3.8259577E-2,-1.2944277E-1,1.6155727E-2,-7.6240465E-2,4.9979005E-2,-1.9390618E-2,1.05222195E-1,-0E0,9.935615E-2,-0E0,-4.418359E-2,2.85687E-2,-0E0,-9.8659314E-2,4.9713448E-2,-0E0,-1.2845227E-1,-0E0,-1.8280022E-2,4.5044895E-2,-0E0,8.216914E-2,-9.6834645E-2,2.8337456E-2,-0E0,8.0377445E-2],"split_indices":[6,2,4,0,5,8,6,7,8,5,14,4,7,6,5,53,6,32,45,63,6,75,8,0,4,70,7,0,4,0,0,6,36,5,0,8,5,7,0,42,72,2,7,4,42,0,57,8,0,45,7,6,5,0,5,42,0,5,7,0,0,0,0,0,7,5,0,75,0,72,8,8,4,6,37,2,5,5,0,0,0,0,0,0,0,0,0,0,0,0,0,0,0,0,0,0,0,0,0,0,0,0,0,0,0,0,0,0,0,0,0,0,0,0,0,0,0,0,0,0,0],"split_type":[0,0,0,0,0,0,0,0,0,0,0,0,0,0,0,0,0,0,0,0,0,0,0,0,0,0,0,0,0,0,0,0,0,0,0,0,0,0,0,0,0,0,0,0,0,0,0,0,0,0,0,0,0,0,0,0,0,0,0,0,0,0,0,0,0,0,0,0,0,0,0,0,0,0,0,0,0,0,0,0,0,0,0,0,0,0,0,0,0,0,0,0,0,0,0,0,0,0,0,0,0,0,0,0,0,0,0,0,0,0,0,0,0,0,0,0,0,0,0,0,0],"sum_hessian":[6.4248384E3,2.5395112E3,3.885327E3,1.8892612E3,6.502501E2,5.537376E2,3.3315894E3,4.9780643E2,1.5244366E2,2.627351E2,2.9100247E2,1.9029324E3,1.4286569E3,3.778384E2,1.1996804E2,1.742514E1,1.3501852E2,2.3291045E2,2.9824669E1,7.241996E1,2.1858252E2,1.2012157E3,7.0171674E2,1.4370605E0,1.4272198E3,2.4844968E2,1.2938872E2,2.8562334E1,9.140571E1,1.2745733E1,4.679407E0,2.2877394E1,1.1214113E2,2.2483167E2,8.078775E0,1.5228156E1,1.4596513E1,6.7153786E1,5.2661796E0,1.5989886E2,5.868365E1,1.1485791E3,5.263655E1,3.1600443E2,3.857123E2,1.3350411E3,9.217869E1,2.3893022E2,9.519456E0,1.0400174E2,2.538698E1,5.6829285E1,3.457642E1,4.449164E0,1.842823E1,1.08666504E2,3.4746277E0,1.4811178E1,2.100205E2,1.0197499E1,5.0306563E0,1.2293984E0,1.3367114E1,2.8798122E1,3.8355663E1,1.333623E2,2.653657E1,5.632922E1,2.3544328E0,1.1171831E3,3.139602E1,2.6395046E1,2.6241507E1,5.0498093E1,2.6550635E2,3.3054855E2,5.516376E1,8.6368286E1,5.810399E0,1.3247304E1,2.2568292E2,7.5392914E1,2.8608831E1,1.9750235E1,5.636746E0,3.493364E1,2.1895645E1,1.4582417E1,1.9994005E1,1.51791E1,3.2491305E0,1.0138883E2,7.277674E0,9.3999405E0,5.4112377E0,5.854511E1,1.5147539E2,2.3376122E1,1.4979542E1,8.821685E1,4.5145443E1,5.5174065E1,1.1551534E0,1.0806395E3,3.6543537E1,2.1828348E1,9.567673E0,6.873856E0,1.9521189E1,2.324108E1,3.0004282E0,4.1414852E1,9.083241E0,1.4164035E2,1.23866E2,1.4906277E1,3.1564227E2,2.0231915E1,3.493185E1,7.386727E0,7.898156E1],"tree_param":{"num_deleted":"0","num_feature":"78","num_nodes":"121","size_leaf_vector":"0"}},{"base_weights":[-1.5709002E-2,-1.0384706E0,4.5264512E-1,-1.0987448E0,-4.078731E-1,-3.7096214E-1,6.212707E-1,-1.3992122E-1,-0E0,4.676536E-1,-7.4595296E-1,-5.322095E-1,2.108776E-1,2.2510138E-1,7.716271E-1,-1.8053629E-2,-0E0,7.938355E-1,-2.3802055E-2,-8.701341E-1,-0E0,-7.9960823E-1,-1.02203526E-1,3.743552E-1,-3.9328232E-1,-2.7311817E-1,3.6848924E-1,8.246273E-1,2.4368772E-1,-0E0,1.1214806E-1,-9.5127344E-1,-0E0,-2.0897226E-2,1.9474351E-1,-9.0274024E-1,5.91806E-2,2.882667E-2,-1.100522E-1,-0E0,7.5497496E-1,-8.67603E-2,-0E0,-6.499318E-1,4.3465778E-1,4.860107E-1,-2.5568318E-1,8.487608E-1,5.4989953E-2,-2.8523711E-2,5.875166E-1,-1.0524191E0,-0E0,5.5093877E-2,-0E0,-1.2108412E-1,1.0099601E-1,-1.808077E-2,4.4634733E-1,-7.975813E-2,6.713735E-1,-3.786767E-1,1.5983683E-1,8.5352623E-1,-0E0,-1.7575654E-1,-1.8329571E-1,6.065882E-1,-1.52616855E-2,5.368058E-1,-5.8775556E-1,1.6954179E-1,-5.0420916E-1,9.025091E-1,4.8576957E-1,-9.3317956E-1,3.9206472E-1,-7.5135815E-1,1.7254253E-1,-0E0,9.849743E-2,-1.4116175E-1,-0E0,5.4643266E-2,-0E0,9.430692E-2,-0E0,-8.6267315E-2,2.1621328E-2,1.1308376E-1,-0E0,-1.1171022E-1,1.1126667E-2,-0E0,4.2386886E-2,-0E0,1.1473162E-1,-1.4642733E-1,7.5328406E-3,9.265217E-2,-0E0,7.238709E-2,-3.7612434E-2,-1.2634373E-1,-0E0,-0E0,5.8350395E-2,1.8221585E-2,-1.0978585E-1,9.680706E-2,1.281788E-1,-1.3806651E-2,8.5896246E-2,-1.5378621E-1,-0E0,-0E0,7.359577E-2,-1.6785505E-1,-0E0,4.3668035E-2,-4.8514973E-2,-5.640982E-2,1.0236234E-2],"categories":[],"categories_nodes":[],"categories_segments":[],"categories_sizes":[],"default_left":[0,0,0,0,0,0,0,0,0,0,0,0,0,0,0,0,0,0,0,0,0,0,0,0,0,0,0,0,0,0,0,0,0,0,0,0,0,0,0,0,0,0,0,0,0,0,0,0,0,0,0,0,0,0,0,0,0,0,0,0,0,0,0,0,0,0,0,0,0,0,0,0,0,0,0,0,0,0,0,0,0,0,0,0,0,0,0,0,0,0,0,0,0,0,0,0,0,0,0,0,0,0,0,0,0,0,0,0,0,0,0,0,0,0,0,0,0,0,0,0,0,0,0],"id":13,"left_children":[1,3,5,7,9,11,13,-1,15,17,19,21,23,25,27,-1,-1,29,-1,31,33,35,37,39,41,43,45,47,49,-1,-1,51,-1,-1,53,55,57,59,-1,61,63,-1,-1,65,67,69,71,73,75,77,79,81,-1,-1,-1,-1,83,-1,85,87,89,91,93,95,-1,97,-1,99,-1,101,103,105,107,109,111,113,115,117,119,121,-1,-1,-1,-1,-1,-1,-1,-1,-1,-1,-1,-1,-1,-1,-1,-1,-1,-1,-1,-1,-1,-1,-1,-1,-1,-1,-1,-1,-1,-1,-1,-1,-1,-1,-1,-1,-1,-1,-1,-1,-1,-1,-1],"loss_changes":[2.8652722E3,5.6552002E1,5.7182666E2,5.307373E0,6.004182E1,6.8239174E1,1.9392859E2,0E0,3.2172978E-1,1.6514744E1,1.4452057E1,5.616667E1,1.5251919E1,7.017528E1,5.887378E1,0E0,0E0,5.142544E0,0E0,1.3524757E1,1.1213261E0,3.6117935E1,2.9985554E1,2.3588266E1,5.4705715E0,5.8954582E1,5.8582985E1,3.374939E1,2.7607433E1,0E0,0E0,1.0494064E1,0E0,0E0,2.3743699E0,2.3397827E1,5.486756E0,1.8690224E1,0E0,5.773973E0,9.6009445E0,0E0,0E0,4.0428715E1,1.09005785E1,3.7593643E1,1.5378372E1,2.7690918E1,2.6743933E1,2.4687447E1,1.5512047E1,2.7057724E0,0E0,0E0,0E0,0E0,2.026353E0,0E0,7.2549872E0,2.9549131E1,1.0574598E1,1.4659904E1,2.7395768E0,5.255127E0,0E0,3.3289085E1,0E0,9.05615E0,0E0,2.1635254E1,1.0270765E1,4.38135E0,2.6685814E1,8.283936E0,4.0338913E1,7.0616198E0,7.9472914E0,2.2418839E1,1.0347065E1,2.36845E0,0E0,0E0,0E0,0E0,0E0,0E0,0E0,0E0,0E0,0E0,0E0,0E0,0E0,0E0,0E0,0E0,0E0,0E0,0E0,0E0,0E0,0E0,0E0,0E0,0E0,0E0,0E0,0E0,0E0,0E0,0E0,0E0,0E0,0E0,0E0,0E0,0E0,0E0,0E0,0E0,0E0,0E0,0E0],"parents":[2147483647,0,0,1,1,2,2,3,3,4,4,5,5,6,6,8,8,9,9,10,10,11,11,12,12,13,13,14,14,17,17,19,19,20,20,21,21,22,22,23,23,24,24,25,25,26,26,27,27,28,28,31,31,34,34,35,35,36,36,37,37,39,39,40,40,43,43,44,44,45,45,46,46,47,47,48,48,49,49,50,50,51,51,56,56,58,58,59,59,60,60,61,61,62,62,63,63,65,65,67,67,69,69,70,70,71,71,72,72,73,73,74,74,75,75,76,76,77,77,78,78,79,79],"right_children":[2,4,6,8,10,12,14,-1,16,18,20,22,24,26,28,-1,-1,30,-1,32,34,36,38,40,42,44,46,48,50,-1,-1,52,-1,-1,54,56,58,60,-1,62,64,-1,-1,66,68,70,72,74,76,78,80,82,-1,-1,-1,-1,84,-1,86,88,90,92,94,96,-1,98,-1,100,-1,102,104,106,108,110,112,114,116,118,120,122,-1,-1,-1,-1,-1,-1,-1,-1,-1,-1,-1,-1,-1,-1,-1,-1,-1,-1,-1,-1,-1,-1,-1,-1,-1,-1,-1,-1,-1,-1,-1,-1,-1,-1,-1,-1,-1,-1,-1,-1,-1,-1,-1],"split_conditions":[2.1E1,4.51E0,1.68E0,3.427944E16,4.75E0,9.1E1,4.4E1,-1.3992122E-1,4.39E0,4.37E0,1E0,8.4095245E14,4.22E0,4.13E0,4.95E0,-1.8053629E-2,-0E0,4.25E0,-2.3802055E-2,1E0,4.51E0,1E0,1E0,3.82E0,1E0,1E0,5E0,4.97E0,1E0,-0E0,1.1214806E-1,1E0,-0E0,-2.0897226E-2,4.52E0,1E0,4.12E0,1E0,-1.100522E-1,1.53E2,1E0,-8.67603E-2,-0E0,4.31E0,1E0,1E0,4.26E0,1E0,4.15E0,6.6E1,4.84E0,1E0,-0E0,5.5093877E-2,-0E0,-1.2108412E-1,7.243457E13,-1.808077E-2,4.31E0,3.5E1,1E0,3.6730976E15,1.02188E14,1.8797268E13,-0E0,3.77E0,-1.8329571E-1,4.63E0,-1.52616855E-2,1E0,1E0,1E0,2.4E1,8.6E1,4.2E0,1E0,6.4E1,2.7969614E15,1E0,4.51E0,9.849743E-2,-1.4116175E-1,-0E0,5.4643266E-2,-0E0,9.430692E-2,-0E0,-8.6267315E-2,2.1621328E-2,1.1308376E-1,-0E0,-1.1171022E-1,1.1126667E-2,-0E0,4.2386886E-2,-0E0,1.1473162E-1,-1.4642733E-1,7.5328406E-3,9.265217E-2,-0E0,7.238709E-2,-3.7612434E-2,-1.2634373E-1,-0E0,-0E0,5.8350395E-2,1.8221585E-2,-1.0978585E-1,9.680706E-2,1.281788E-1,-1.3806651E-2,8.5896246E-2,-1.5378621E-1,-0E0,-0E0,7.359577E-2,-1.6785505E-1,-0E0,4.3668035E-2,-4.8514973E-2,-5.640982E-2,1.0236234E-2],"split_indices":[6,3,1,8,3,6,6,0,1,4,33,8,0,0,2,0,0,0,0,10,0,29,42,0,20,33,3,1,